{"type":"LSTM","options":{"inputSize":5,"inputRange":5,"hiddenLayers":[20,20],"outputSize":5,"decayRate":0.999,"smoothEps":1e-8,"regc":0.000001,"clipval":5,"maxPredictionLength":100,"dataFormatter":{"values":[["1"],["1"],["0"],["0"]],"indexTable":{"0":1,"1":0,"stop-input":2,"start-output":3,"unrecognized":4},"characterTable":{"0":"1","1":"0","2":null,"3":null,"4":null},"characters":["1","0","stop-input","start-output","unrecognized"],"specialIndexes":[2,3,4]}},"input":{"rows":6,"columns":5,"weights":{"0":-5.903444766998291,"1":-6.116187572479248,"2":0.21972660720348358,"3":0.3838755190372467,"4":0.1730743646621704,"5":-0.4136412739753723,"6":-8.483423233032227,"7":-5.946380615234375,"8":-4.147071361541748,"9":-9.505495071411133,"10":-4.505446434020996,"11":-3.1280062198638916,"12":5.048037528991699,"13":3.9428396224975586,"14":4.93620491027832,"15":2.8299152851104736,"16":3.53865385055542,"17":0.2752070128917694,"18":0.5683404207229614,"19":0.16725943982601166,"20":0.19556286931037903,"21":0.10868119448423386,"22":5.306012153625488,"23":4.635621547698975,"24":6.551207065582275,"25":-0.015774063766002655,"26":0.01083685178309679,"27":0.07216525822877884,"28":-0.05186796560883522,"29":-0.046994034200906754}},"hiddenLayers":[{"inputMatrix":{"rows":20,"columns":5,"weights":{"0":1.214727759361267,"1":1.2645732164382935,"2":6.071836948394775,"3":5.639082431793213,"4":6.12408971786499,"5":-6.42004919052124,"6":-6.34181022644043,"7":-1.2812074422836304,"8":-0.5720306634902954,"9":-2.313744068145752,"10":0.2679429352283478,"11":0.08496145904064178,"12":-4.579286575317383,"13":-5.2883076667785645,"14":-3.702681064605713,"15":-6.002015590667725,"16":-5.664009094238281,"17":-2.0419716835021973,"18":-0.9241194725036621,"19":-0.3663235306739807,"20":-3.150700569152832,"21":-3.3528873920440674,"22":-4.360076427459717,"23":-5.2839035987854,"24":-3.5279901027679443,"25":-6.073555946350098,"26":-5.776010990142822,"27":-2.086116075515747,"28":-1.0190471410751343,"29":-2.5843989849090576,"30":-0.019735654816031456,"31":-0.16050194203853607,"32":-4.338920593261719,"33":-5.068480491638184,"34":-3.835021734237671,"35":1.2333488464355469,"36":2.37088942527771,"37":8.048935890197754,"38":3.2161333560943604,"39":7.081188201904297,"40":-1.9001930952072144,"41":-2.55688214302063,"42":-2.880007028579712,"43":-4.013410568237305,"44":-2.030682325363159,"45":-6.329365253448486,"46":-6.531828880310059,"47":-1.1161177158355713,"48":-0.5984727144241333,"49":-1.8756417036056519,"50":-2.230283737182617,"51":-1.8988368511199951,"52":-5.480517864227295,"53":-4.306109428405762,"54":-5.859823703765869,"55":4.47347354888916,"56":4.71191930770874,"57":4.938959121704102,"58":4.770469665527344,"59":5.705770969390869,"60":3.4251046180725098,"61":4.007541179656982,"62":4.587233543395996,"63":6.519859790802002,"64":2.821258068084717,"65":-1.7431433200836182,"66":-2.0911598205566406,"67":-2.9458088874816895,"68":-3.659409999847412,"69":-2.440420627593994,"70":-6.389352798461914,"71":-6.4841084480285645,"72":-1.6418176889419556,"73":-0.6908494234085083,"74":-2.3535449504852295,"75":-6.8393874168396,"76":-5.765180587768555,"77":3.570152759552002,"78":4.430215835571289,"79":3.2094008922576904,"80":-1.7998992204666138,"81":-2.1969494819641113,"82":-3.60945463180542,"83":-5.43035364151001,"84":-2.011056661605835,"85":-5.963524341583252,"86":-5.569175720214844,"87":-2.082632064819336,"88":-0.9356422424316406,"89":-2.543268918991089,"90":0.5165749192237854,"91":0.7787618637084961,"92":-4.507019996643066,"93":-5.446918964385986,"94":-3.908296585083008,"95":-7.158191680908203,"96":-1.6110162734985352,"97":4.823422431945801,"98":5.560884952545166,"99":-0.5787249803543091}},"inputHidden":{"rows":20,"columns":20,"weights":{"0":0.06854409724473953,"1":0.033332739025354385,"2":2.183450698852539,"3":1.125390887260437,"4":3.9208106994628906,"5":-4.720190525054932,"6":3.976421356201172,"7":-0.29608064889907837,"8":3.8293778896331787,"9":-0.049207523465156555,"10":0.036920756101608276,"11":-6.061955451965332,"12":-6.05534029006958,"13":-3.952620267868042,"14":-0.26965194940567017,"15":-5.537020683288574,"16":-2.17195725440979,"17":5.1873955726623535,"18":3.845930337905884,"19":0.9290837645530701,"20":3.148879289627075,"21":-3.054992914199829,"22":0.26277580857276917,"23":-2.91692852973938,"24":-0.4486199617385864,"25":3.0938498973846436,"26":0.27624088525772095,"27":-2.7520947456359863,"28":-1.8635656833648682,"29":-3.0490543842315674,"30":-3.2377724647521973,"31":-3.2213733196258545,"32":2.786513328552246,"33":0.8074642419815063,"34":-3.0156548023223877,"35":-3.2802975177764893,"36":-0.5640537738800049,"37":-2.961454153060913,"38":-0.47326409816741943,"39":-2.7161474227905273,"40":3.157733201980591,"41":-3.4401001930236816,"42":-0.46074116230010986,"43":-3.419074773788452,"44":-1.3628253936767578,"45":3.3871092796325684,"46":-0.32927313446998596,"47":-3.6375162601470947,"48":-2.8203227519989014,"49":-3.451234817504883,"50":-2.969067335128784,"51":-2.791110038757324,"52":3.5235652923583984,"53":1.8071421384811401,"54":-3.3926069736480713,"55":-2.882044792175293,"56":-1.5098176002502441,"57":-3.2309937477111816,"58":-2.0902934074401855,"59":-2.6982500553131104,"60":3.0675485134124756,"61":-3.379392385482788,"62":0.31803393363952637,"63":-3.2034497261047363,"64":-0.2365662306547165,"65":3.3932435512542725,"66":0.3204294443130493,"67":-2.8733298778533936,"68":-0.14863812923431396,"69":-3.4316182136535645,"70":-3.293135643005371,"71":2.8000242710113525,"72":2.925041913986206,"73":0.09377606958150864,"74":-3.4470882415771484,"75":-2.1913838386535645,"76":-0.2633626163005829,"77":-3.265471935272217,"78":0.2313075065612793,"79":-3.1174793243408203,"80":2.998178482055664,"81":-2.9292798042297363,"82":-0.1084444597363472,"83":-3.0358479022979736,"84":-0.375766396522522,"85":2.9962239265441895,"86":-0.0648401603102684,"87":-3.1585896015167236,"88":-1.7916691303253174,"89":-2.9138567447662354,"90":-2.9979617595672607,"91":-2.932697296142578,"92":3.1546578407287598,"93":0.7408231496810913,"94":-3.010904312133789,"95":-3.0670790672302246,"96":-0.5269222259521484,"97":-2.927501678466797,"98":-0.8897507786750793,"99":-0.6469163298606873,"100":3.0758955478668213,"101":-3.3230600357055664,"102":0.35883650183677673,"103":-3.1040101051330566,"104":-0.3747355043888092,"105":3.3411505222320557,"106":0.3259609639644623,"107":-2.8439340591430664,"108":-0.8673403263092041,"109":-3.184246063232422,"110":-3.3131868839263916,"111":2.8374338150024414,"112":2.754584312438965,"113":0.3597487807273865,"114":-3.266218423843384,"115":-3.1886956691741943,"116":-0.2941562831401825,"117":-3.1804885864257812,"118":0.05270436406135559,"119":-2.906832218170166,"120":3.001699686050415,"121":-3.2313740253448486,"122":2.3099513053894043,"123":-3.1263949871063232,"124":-3.835123300552368,"125":3.0453879833221436,"126":1.2206660509109497,"127":-3.5302627086639404,"128":-4.509823322296143,"129":-3.355501174926758,"130":-3.021606922149658,"131":-2.6159934997558594,"132":3.5173988342285156,"133":4.1363911628723145,"134":-3.2292094230651855,"135":-2.8789055347442627,"136":-3.8541464805603027,"137":-3.1112587451934814,"138":-4.509499549865723,"139":-2.0917603969573975,"140":-2.615471124649048,"141":-1.035018801689148,"142":-0.20741963386535645,"143":-4.881664276123047,"144":3.13588547706604,"145":3.0327062606811523,"146":-0.179739847779274,"147":-3.507627010345459,"148":3.6342594623565674,"149":5.409533500671387,"150":6.251102924346924,"151":3.6935653686523438,"152":-1.729594349861145,"153":-3.4477431774139404,"154":5.3558197021484375,"155":6.898193836212158,"156":3.3289942741394043,"157":-6.437832832336426,"158":0.04295993968844414,"159":-2.26098895072937,"160":3.9127018451690674,"161":-3.0323374271392822,"162":-0.1347273737192154,"163":-2.9663615226745605,"164":-0.7501132488250732,"165":2.956362247467041,"166":-0.01125322561711073,"167":-3.476433753967285,"168":-2.437025547027588,"169":-3.055471897125244,"170":-3.0549747943878174,"171":-3.690291404724121,"172":2.7628026008605957,"173":1.2909739017486572,"174":-3.0771636962890625,"175":-3.0044822692871094,"176":-0.8218547701835632,"177":-2.7181644439697266,"178":-1.2895736694335938,"179":-0.48023179173469543,"180":3.1351728439331055,"181":-3.2502219676971436,"182":0.33336615562438965,"183":-3.2104341983795166,"184":0.8055716753005981,"185":3.302640914916992,"186":0.22401924431324005,"187":-2.790794610977173,"188":-0.6896067261695862,"189":-3.1951475143432617,"190":-3.244075059890747,"191":-3.1934211254119873,"192":2.75923752784729,"193":-0.4236532151699066,"194":-3.23325514793396,"195":-3.2370612621307373,"196":0.7257891297340393,"197":-3.376690149307251,"198":-0.5577600598335266,"199":-3.259535074234009,"200":6.111889362335205,"201":-3.1465134620666504,"202":-0.07350572198629379,"203":-3.074877977371216,"204":-0.9985126256942749,"205":3.1563503742218018,"206":-0.006012170109897852,"207":-5.792198181152344,"208":-2.7242558002471924,"209":-3.175245523452759,"210":-3.0271167755126953,"211":-6.026277542114258,"212":5.580329895019531,"213":1.6805882453918457,"214":-3.1220760345458984,"215":-3.1407899856567383,"216":-1.0999025106430054,"217":-3.103318691253662,"218":-1.622136116027832,"219":-2.287630081176758,"220":-2.552002429962158,"221":1.3279145956039429,"222":-2.9393210411071777,"223":0.5302552580833435,"224":3.4650237560272217,"225":-0.6720460653305054,"226":2.751377582550049,"227":2.702418565750122,"228":4.9278244972229,"229":1.2141735553741455,"230":1.2596797943115234,"231":-0.41725149750709534,"232":-3.428985595703125,"233":-3.8259341716766357,"234":1.1175692081451416,"235":3.1604979038238525,"236":3.495910882949829,"237":1.608199954032898,"238":3.5493967533111572,"239":1.8329577445983887,"240":-3.000868558883667,"241":0.47115087509155273,"242":3.006770372390747,"243":-3.9636642932891846,"244":3.4365530014038086,"245":-5.772709846496582,"246":3.0743772983551025,"247":2.909008264541626,"248":4.6009016036987305,"249":0.14954161643981934,"250":0.42057284712791443,"251":3.1289961338043213,"252":-3.06557559967041,"253":-3.734764337539673,"254":0.09400193393230438,"255":0.5459318161010742,"256":-2.621734142303467,"257":0.139603853225708,"258":3.6980538368225098,"259":1.2257393598556519,"260":3.4221389293670654,"261":-3.2150845527648926,"262":-0.3489157557487488,"263":-3.281235456466675,"264":-0.8292867541313171,"265":3.133899450302124,"266":-0.1833178699016571,"267":-3.6773793697357178,"268":-2.4949746131896973,"269":-3.1960318088531494,"270":-2.955289125442505,"271":-3.2174997329711914,"272":3.175281524658203,"273":1.395422101020813,"274":-3.192823648452759,"275":-2.8932032585144043,"276":-0.9124485850334167,"277":-3.127082586288452,"278":-1.865102767944336,"279":-1.5870898962020874,"280":3.0273046493530273,"281":-3.1293673515319824,"282":0.39137038588523865,"283":-2.9697678089141846,"284":-0.5949630737304688,"285":3.1434428691864014,"286":0.37429311871528625,"287":-2.6958818435668945,"288":-2.1018075942993164,"289":-3.1254098415374756,"290":-3.2630131244659424,"291":-3.130791425704956,"292":2.7183964252471924,"293":1.0390770435333252,"294":-3.1503260135650635,"295":-3.2756683826446533,"296":-0.7872547507286072,"297":-2.9885263442993164,"298":-0.6188780069351196,"299":-2.7672388553619385,"300":-2.8204848766326904,"301":-2.9246749877929688,"302":-0.031327132135629654,"303":-1.4530519247055054,"304":-0.24376416206359863,"305":2.6456797122955322,"306":-0.012530472129583359,"307":0.2993161976337433,"308":-1.204001545906067,"309":-2.910660982131958,"310":-2.9384148120880127,"311":2.8166162967681885,"312":3.1002509593963623,"313":0.5715941786766052,"314":-2.960786819458008,"315":-3.227748155593872,"316":-0.26529863476753235,"317":2.632711172103882,"318":-0.4485933482646942,"319":6.134864330291748,"320":5.74558687210083,"321":-3.0078628063201904,"322":-0.17979182302951813,"323":-3.1218714714050293,"324":-0.9103273749351501,"325":2.972609043121338,"326":-0.1894254833459854,"327":-5.451875686645508,"328":-2.472187042236328,"329":-3.037180185317993,"330":-3.0721092224121094,"331":-5.654596328735352,"332":1.0901974439620972,"333":1.4331411123275757,"334":-3.0102577209472656,"335":-1.0031235218048096,"336":-1.0269852876663208,"337":-2.9789016246795654,"338":-1.6909315586090088,"339":-3.438912868499756,"340":3.1933653354644775,"341":-3.515866756439209,"342":0.14185969531536102,"343":-3.418802499771118,"344":-0.22222495079040527,"345":3.5553784370422363,"346":0.06678032130002975,"347":-2.903261423110962,"348":-0.587038516998291,"349":-3.473688840866089,"350":-3.271594524383545,"351":2.8746352195739746,"352":3.036224126815796,"353":0.2839881479740143,"354":-3.594522714614868,"355":-3.127580165863037,"356":-0.27206024527549744,"357":-3.4036664962768555,"358":-0.0053683919832110405,"359":-3.1464264392852783,"360":3.0133056640625,"361":-3.237187623977661,"362":-1.6412571668624878,"363":-3.626903772354126,"364":0.45011457800865173,"365":3.3513078689575195,"366":0.2866983413696289,"367":-3.1811771392822266,"368":-1.5400348901748657,"369":-3.244270086288452,"370":-3.3180058002471924,"371":-2.694422960281372,"372":3.128525972366333,"373":0.2163112461566925,"374":-3.360978603363037,"375":-3.1027209758758545,"376":0.3544119596481323,"377":-3.1032333374023438,"378":-0.37440088391304016,"379":-2.3307571411132812,"380":-2.8898096084594727,"381":1.916395664215088,"382":0.18047814071178436,"383":2.011836290359497,"384":-0.3003159165382385,"385":-1.902523398399353,"386":0.15553563833236694,"387":0.18857547640800476,"388":0.018483508378267288,"389":2.2071800231933594,"390":2.7212982177734375,"391":4.077174663543701,"392":-2.667186737060547,"393":0.039748817682266235,"394":2.164565086364746,"395":-2.715937614440918,"396":-0.13271981477737427,"397":2.1024186611175537,"398":0.38905948400497437,"399":2.3769569396972656}},"inputBias":{"rows":20,"columns":1,"weights":{"0":-2.322019100189209,"1":3.486295700073242,"2":-3.7318367958068848,"3":3.1298415660858154,"4":-0.0470384918153286,"5":3.370697021484375,"6":-3.715956449508667,"7":1.003442645072937,"8":-2.5785462856292725,"9":3.6640615463256836,"10":2.7232155799865723,"11":3.299377679824829,"12":2.564413547515869,"13":-2.644155263900757,"14":3.7931389808654785,"15":2.775517463684082,"16":-5.403149604797363,"17":3.1844985485076904,"18":-4.111037254333496,"19":2.9668686389923096}},"forgetMatrix":{"rows":20,"columns":5,"weights":{"0":3.332244634628296,"1":3.365466833114624,"2":2.857516050338745,"3":2.9824047088623047,"4":2.522176504135132,"5":-1.2731887102127075,"6":5.687995910644531,"7":6.085629463195801,"8":-0.1078638881444931,"9":5.397944927215576,"10":-1.6163047552108765,"11":-1.8811973333358765,"12":0.0064631253480911255,"13":-0.17768831551074982,"14":0.22756056487560272,"15":-2.9612741470336914,"16":2.3881449699401855,"17":-3.0928802490234375,"18":-2.7736544609069824,"19":-3.00581693649292,"20":0.45534488558769226,"21":0.6521216034889221,"22":0.5661913156509399,"23":1.2359486818313599,"24":0.16922688484191895,"25":-2.879240036010742,"26":-3.079496383666992,"27":-3.1914174556732178,"28":-3.099033832550049,"29":-3.0520431995391846,"30":-1.2484729290008545,"31":-1.4960002899169922,"32":0.00002242374284833204,"33":-0.14429490268230438,"34":0.049214743077754974,"35":3.1712324619293213,"36":3.2148945331573486,"37":3.101151466369629,"38":3.1849770545959473,"39":3.0971310138702393,"40":2.770031690597534,"41":2.91107439994812,"42":2.62266206741333,"43":2.9688937664031982,"44":2.1037397384643555,"45":3.2914838790893555,"46":3.0789220333099365,"47":3.01517653465271,"48":2.9603512287139893,"49":3.206364393234253,"50":3.051607370376587,"51":3.106123208999634,"52":3.103339672088623,"53":3.1663625240325928,"54":3.186509609222412,"55":-6.025136470794678,"56":-6.0816192626953125,"57":-0.05819392576813698,"58":-1.1823444366455078,"59":0.09213399142026901,"60":1.6685535907745361,"61":3.211826801300049,"62":3.0025525093078613,"63":3.1171724796295166,"64":3.1052114963531494,"65":2.224710702896118,"66":2.2099132537841797,"67":1.7010643482208252,"68":2.5097947120666504,"69":1.0770779848098755,"70":-5.925999641418457,"71":-0.010835269466042519,"72":-5.9773406982421875,"73":6.0537214279174805,"74":0.003979501314461231,"75":-3.1193981170654297,"76":-3.0978667736053467,"77":-3.076197624206543,"78":-3.131819248199463,"79":-3.159363031387329,"80":1.718980073928833,"81":1.6772085428237915,"82":1.3295097351074219,"83":1.8647499084472656,"84":0.7322282791137695,"85":-3.0137951374053955,"86":2.7574923038482666,"87":-2.934357166290283,"88":-1.2517343759536743,"89":-3.032667875289917,"90":-2.108412265777588,"91":-1.9805494546890259,"92":-1.7507569789886475,"93":-2.355617046356201,"94":-1.1517918109893799,"95":-2.8995730876922607,"96":3.170761823654175,"97":3.0766031742095947,"98":3.0676958560943604,"99":-2.8005430698394775}},"forgetHidden":{"rows":20,"columns":20,"weights":{"0":-3.2781317234039307,"1":3.0096631050109863,"2":0.0784328430891037,"3":3.0408754348754883,"4":0.39848682284355164,"5":-3.0364391803741455,"6":-0.016285426914691925,"7":3.1513233184814453,"8":1.6290959119796753,"9":3.0865490436553955,"10":3.1058061122894287,"11":3.576204299926758,"12":-2.970968246459961,"13":-0.6754109859466553,"14":3.0059914588928223,"15":3.1681697368621826,"16":0.4792311191558838,"17":2.9790518283843994,"18":0.6475029587745667,"19":3.7611591815948486,"20":-3.1384358406066895,"21":-0.18555407226085663,"22":0.07191403955221176,"23":-0.021996594965457916,"24":3.515380620956421,"25":0.11398544162511826,"26":0.15836478769779205,"27":0.06746051460504532,"28":4.91326904296875,"29":6.058417320251465,"30":6.03411865234375,"31":3.0545804500579834,"32":-3.238929033279419,"33":-3.7891292572021484,"34":6.0598344802856445,"35":-0.09762708842754364,"36":3.6373860836029053,"37":-0.12362602353096008,"38":0.8755807280540466,"39":-0.06262292712926865,"40":0.03414779156446457,"41":0.41686445474624634,"42":-0.7049017548561096,"43":0.10685467720031738,"44":-0.5104231238365173,"45":0.7987109422683716,"46":-0.718846321105957,"47":-0.17694173753261566,"48":-0.4897936284542084,"49":0.5151244401931763,"50":0.6094948053359985,"51":0.059855952858924866,"52":0.13204801082611084,"53":0.5811556577682495,"54":0.6672140955924988,"55":0.7165616154670715,"56":0.6338539719581604,"57":-0.8247060775756836,"58":-0.7156528234481812,"59":-0.8072399497032166,"60":-3.051861047744751,"61":2.806212902069092,"62":0.14553388953208923,"63":2.9705898761749268,"64":-0.1478734016418457,"65":-2.7992568016052246,"66":0.003686355659738183,"67":-3.017793893814087,"68":0.021294204518198967,"69":2.7989931106567383,"70":3.0084407329559326,"71":2.8635101318359375,"72":-3.0900516510009766,"73":-0.033433832228183746,"74":2.7940661907196045,"75":-3.1733124256134033,"76":-0.01026097871363163,"77":2.905895709991455,"78":0.23781809210777283,"79":2.966510772705078,"80":-0.24200917780399323,"81":0.5439225435256958,"82":0.01691332831978798,"83":0.3023299276828766,"84":-0.04141015559434891,"85":-0.3267574608325958,"86":-0.03849394619464874,"87":0.4994795322418213,"88":-0.021571947261691093,"89":0.3802952170372009,"90":0.5134709477424622,"91":0.20523563027381897,"92":-0.36380982398986816,"93":0.019799647852778435,"94":0.3636028468608856,"95":0.3112160861492157,"96":-0.0602988637983799,"97":0.2098895013332367,"98":-0.03391766548156738,"99":0.056564949452877045,"100":-3.0209579467773438,"101":2.828054904937744,"102":0.1307099312543869,"103":2.9219157695770264,"104":-0.09928452223539352,"105":-2.8642995357513428,"106":0.04258660227060318,"107":-2.974917411804199,"108":0.1095750629901886,"109":2.8643078804016113,"110":2.887803316116333,"111":2.954169511795044,"112":-3.0736026763916016,"113":0.020296815782785416,"114":2.7093560695648193,"115":-3.182185411453247,"116":-0.05000035837292671,"117":2.8273589611053467,"118":0.1697627753019333,"119":2.94527530670166,"120":0.025100955739617348,"121":0.23993530869483948,"122":-0.14307141304016113,"123":0.19850365817546844,"124":-0.3516118824481964,"125":0.15296220779418945,"126":-0.49008604884147644,"127":-0.12233443558216095,"128":-0.43079665303230286,"129":0.23948335647583008,"130":0.4942338466644287,"131":0.16634850203990936,"132":0.13434737920761108,"133":0.24902673065662384,"134":0.34553563594818115,"135":0.4060076177120209,"136":0.21230247616767883,"137":-0.3635399043560028,"138":-0.4404052793979645,"139":-0.44126901030540466,"140":-2.9550323486328125,"141":3.0249412059783936,"142":0.018053468316793442,"143":-2.4148895740509033,"144":0.2982090711593628,"145":-0.9247331619262695,"146":-0.09080579876899719,"147":2.7893638610839844,"148":1.2723779678344727,"149":3.040130853652954,"150":3.062148332595825,"151":3.198951482772827,"152":-2.880812644958496,"153":-0.5581173300743103,"154":3.029332160949707,"155":3.060391426086426,"156":0.3085119426250458,"157":-2.990644693374634,"158":0.39724817872047424,"159":2.1063389778137207,"160":-1.313378930091858,"161":2.234464645385742,"162":0.018039874732494354,"163":1.0828198194503784,"164":0.048621766269207,"165":-1.4251600503921509,"166":-0.01797693967819214,"167":2.1894500255584717,"168":0.1677131950855255,"169":2.156373977661133,"170":2.3209221363067627,"171":0.9237321019172668,"172":-1.9676084518432617,"173":-0.05353928357362747,"174":2.1551108360290527,"175":2.0650341510772705,"176":-0.017246033996343613,"177":0.6318737864494324,"178":0.07577645033597946,"179":0.10723025351762772,"180":-3.1180341243743896,"181":2.9292187690734863,"182":0.14932164549827576,"183":2.9645609855651855,"184":0.42092272639274597,"185":-2.91878080368042,"186":0.059858471155166626,"187":3.1573634147644043,"188":1.7864990234375,"189":2.8304295539855957,"190":2.995487689971924,"191":2.938292980194092,"192":-3.198981285095215,"193":-0.8375511169433594,"194":2.8543965816497803,"195":-2.9917960166931152,"196":0.5386876463890076,"197":2.902902126312256,"198":0.9368369579315186,"199":3.0637195110321045,"200":-3.066720962524414,"201":3.143589735031128,"202":0.04881058260798454,"203":3.1520261764526367,"204":1.1240718364715576,"205":-3.0053632259368896,"206":-0.010683352127671242,"207":3.0949201583862305,"208":2.7241687774658203,"209":3.103440999984741,"210":3.094074010848999,"211":3.070991039276123,"212":-3.1336917877197266,"213":-1.8175655603408813,"214":3.07258677482605,"215":3.0380096435546875,"216":1.2656738758087158,"217":3.124957799911499,"218":1.7838045358657837,"219":2.9288699626922607,"220":6.10989236831665,"221":-3.0162441730499268,"222":-0.05026419833302498,"223":-3.053241014480591,"224":-0.15340165793895721,"225":3.146296501159668,"226":-0.06700330227613449,"227":-5.775671482086182,"228":-1.1055715084075928,"229":-3.1198384761810303,"230":-3.1028270721435547,"231":0.028301287442445755,"232":0.40273723006248474,"233":0.3056122064590454,"234":-3.1080424785614014,"235":-3.043612003326416,"236":-0.240212082862854,"237":-2.9957189559936523,"238":-0.39732733368873596,"239":-5.986496448516846,"240":-3.0164966583251953,"241":3.0893197059631348,"242":-0.060727059841156006,"243":2.9041247367858887,"244":0.29978492856025696,"245":-2.9563112258911133,"246":-0.05015513673424721,"247":2.663989782333374,"248":1.5504223108291626,"249":3.026050567626953,"250":3.1013166904449463,"251":3.102203369140625,"252":-3.049936532974243,"253":-0.7417156100273132,"254":3.0421526432037354,"255":-2.811394214630127,"256":0.4444151520729065,"257":2.76755952835083,"258":0.6419903039932251,"259":3.02481746673584,"260":-0.6578103303909302,"261":1.2004549503326416,"262":-0.13483452796936035,"263":0.39735254645347595,"264":-0.028870854526758194,"265":-0.544021725654602,"266":-0.0927819162607193,"267":1.1468063592910767,"268":0.066860131919384,"269":1.1210708618164062,"270":1.3535945415496826,"271":0.5334240198135376,"272":-0.9258126020431519,"273":-0.09712248295545578,"274":1.232601284980774,"275":1.212653398513794,"276":0.10535980761051178,"277":0.2694450318813324,"278":-0.05827638506889343,"279":-0.0535525418817997,"280":-3.1129024028778076,"281":5.824768543243408,"282":0.053837768733501434,"283":5.852859020233154,"284":-2.79101300239563,"285":-5.769953727722168,"286":0.08451200276613235,"287":0.16413217782974243,"288":-1.6010712385177612,"289":-0.030088085681200027,"290":0.0028652858454734087,"291":2.924431800842285,"292":-3.2277464866638184,"293":2.485306978225708,"294":-0.1105666384100914,"295":-6.190265655517578,"296":-2.7055578231811523,"297":5.568289279937744,"298":0.7806033492088318,"299":5.909378528594971,"300":-3.0942883491516113,"301":3.147763252258301,"302":0.0334068238735199,"303":3.119239568710327,"304":-0.6268790364265442,"305":-3.092288017272949,"306":0.07616078853607178,"307":-3.0715131759643555,"308":-2.161092519760132,"309":3.057251214981079,"310":3.048185348510742,"311":-3.0421576499938965,"312":-3.0074691772460938,"313":1.004191517829895,"314":3.1299238204956055,"315":-3.1009178161621094,"316":-0.7118217349052429,"317":3.139852523803711,"318":-1.1159287691116333,"319":3.071911334991455,"320":-0.3986894190311432,"321":0.9021233320236206,"322":-0.06369573622941971,"323":0.3103598952293396,"324":0.016615821048617363,"325":-0.3492128252983093,"326":0.001922240131534636,"327":0.7197719812393188,"328":0.002463676268234849,"329":0.7743697166442871,"330":0.9713993668556213,"331":0.34771451354026794,"332":-0.6475161910057068,"333":-0.08681076020002365,"334":0.8878478407859802,"335":0.8618525862693787,"336":-0.019917916506528854,"337":0.18926440179347992,"338":-0.07118456810712814,"339":-0.05855681747198105,"340":-3.1255574226379395,"341":2.8318614959716797,"342":0.03561141714453697,"343":2.947328805923462,"344":-0.04469212517142296,"345":-2.922016143798828,"346":-0.02228633128106594,"347":-2.913961887359619,"348":-0.07162301242351532,"349":2.849017858505249,"350":2.9203665256500244,"351":2.0872583389282227,"352":-3.159790277481079,"353":-0.04013168439269066,"354":2.7778160572052,"355":-3.1721270084381104,"356":-0.048966385424137115,"357":2.8762776851654053,"358":0.14437448978424072,"359":3.0112407207489014,"360":0.5836610794067383,"361":-1.4367154836654663,"362":-0.06274547427892685,"363":-0.5004821419715881,"364":0.07439029216766357,"365":0.7189715504646301,"366":-0.015043762512505054,"367":-1.3417943716049194,"368":0.027912015095353127,"369":-1.3296473026275635,"370":-1.3867931365966797,"371":-0.37557312846183777,"372":1.0877845287322998,"373":-0.024673951789736748,"374":-1.2974954843521118,"375":-1.1548691987991333,"376":0.06627091765403748,"377":-0.3169749081134796,"378":-0.08951804041862488,"379":-0.03431212902069092,"380":-3.0942769050598145,"381":2.7240281105041504,"382":0.09234527498483658,"383":2.7892067432403564,"384":-0.04132593795657158,"385":-2.731673240661621,"386":0.08940452337265015,"387":2.7325279712677,"388":-0.10324221849441528,"389":2.8244175910949707,"390":2.982372999191284,"391":-2.888939142227173,"392":-3.146130323410034,"393":0.04352142661809921,"394":2.7088212966918945,"395":-3.074286937713623,"396":-0.025710076093673706,"397":2.9418792724609375,"398":0.02558082342147827,"399":2.8855345249176025}},"forgetBias":{"rows":20,"columns":1,"weights":{"0":0,"1":0,"2":0,"3":0,"4":0,"5":0,"6":0,"7":0,"8":0,"9":0,"10":0,"11":0,"12":0,"13":0,"14":0,"15":0,"16":0,"17":0,"18":0,"19":0}},"outputMatrix":{"rows":20,"columns":5,"weights":{"0":5.9575700759887695,"1":5.658415794372559,"2":0.13417856395244598,"3":0.6488131880760193,"4":0.47185927629470825,"5":-6.635068893432617,"6":-6.642246723175049,"7":-1.201575756072998,"8":-0.6833920478820801,"9":-2.082740306854248,"10":-1.2736198902130127,"11":-0.807016909122467,"12":-5.075501441955566,"13":-4.769157886505127,"14":-5.850498676300049,"15":-6.152344703674316,"16":-5.747775077819824,"17":-2.0112881660461426,"18":-0.920265793800354,"19":-2.3442602157592773,"20":-3.0713789463043213,"21":-3.32494854927063,"22":-4.499897003173828,"23":-5.2462592124938965,"24":-3.6543474197387695,"25":-6.352386951446533,"26":-6.003932952880859,"27":-1.9667482376098633,"28":-0.991841197013855,"29":-2.428407669067383,"30":0.4799414873123169,"31":0.7602770328521729,"32":-4.211177349090576,"33":-4.695248126983643,"34":-4.422973155975342,"35":-5.208286762237549,"36":-3.7324278354644775,"37":5.706199645996094,"38":5.835746765136719,"39":4.937962055206299,"40":-1.7658348083496094,"41":-2.4081923961639404,"42":-3.4272453784942627,"43":-4.459988117218018,"44":-3.0659120082855225,"45":-6.521997928619385,"46":-6.635419845581055,"47":-0.7294125556945801,"48":-0.5306480526924133,"49":-1.5674207210540771,"50":-5.549121379852295,"51":-4.124972343444824,"52":-0.4631097614765167,"53":-0.11160069704055786,"54":-2.7755792140960693,"55":3.224682569503784,"56":3.321580410003662,"57":4.4230475425720215,"58":3.945596694946289,"59":4.852652549743652,"60":2.0613210201263428,"61":2.747276544570923,"62":4.669093608856201,"63":6.184383869171143,"64":3.6594784259796143,"65":-1.9606786966323853,"66":-2.4458322525024414,"67":-2.5549440383911133,"68":-3.476869583129883,"69":-1.653631329536438,"70":-6.605274677276611,"71":-6.6892991065979,"72":-1.318683385848999,"73":-0.7335940599441528,"74":-2.1516246795654297,"75":-6.005642890930176,"76":-2.6590075492858887,"77":4.598546028137207,"78":5.182305812835693,"79":4.451134204864502,"80":-1.5416672229766846,"81":-1.9984638690948486,"82":-4.143589973449707,"83":-5.4411845207214355,"84":-2.8796958923339844,"85":-6.076233863830566,"86":-5.77488899230957,"87":-1.985160231590271,"88":-0.847151517868042,"89":-2.3364648818969727,"90":1.6817747354507446,"91":2.108905553817749,"92":-4.3082990646362305,"93":-4.966487884521484,"94":-4.126158237457275,"95":-5.9093828201293945,"96":0.8892048597335815,"97":4.8263630867004395,"98":5.850919246673584,"99":-2.009084701538086}},"outputHidden":{"rows":20,"columns":20,"weights":{"0":-6.249370574951172,"1":3.028515100479126,"2":0.6442541480064392,"3":2.9399988651275635,"4":0.9339898824691772,"5":-2.9522368907928467,"6":0.2390444129705429,"7":6.235256671905518,"8":1.7911523580551147,"9":2.9860260486602783,"10":3.0090649127960205,"11":0.33720076084136963,"12":-0.0686519593000412,"13":-1.0526717901229858,"14":2.9668712615966797,"15":2.4160470962524414,"16":0.9695461988449097,"17":3.0306785106658936,"18":0.4314175844192505,"19":6.071706771850586,"20":3.099475860595703,"21":-3.232632637023926,"22":0.47021788358688354,"23":-3.0494329929351807,"24":0.5419058799743652,"25":3.2610127925872803,"26":0.4425830841064453,"27":-2.6162829399108887,"28":-0.6071590185165405,"29":-3.14416241645813,"30":-3.3676602840423584,"31":2.769026756286621,"32":2.696059465408325,"33":-0.2610022723674774,"34":-3.2676796913146973,"35":-3.235940456390381,"36":0.4917846918106079,"37":-3.2292590141296387,"38":-0.09290406852960587,"39":-2.9456512928009033,"40":3.0323898792266846,"41":-2.992431879043579,"42":-2.0952069759368896,"43":-2.2414815425872803,"44":-3.8515734672546387,"45":2.524937868118286,"46":-2.0930421352386475,"47":-3.2664878368377686,"48":-5.327125549316406,"49":-3.980724334716797,"50":-3.4525210857391357,"51":-2.5497634410858154,"52":3.776848793029785,"53":4.088078022003174,"54":-3.9755611419677734,"55":-3.1689271926879883,"56":-3.7317636013031006,"57":-1.3552098274230957,"58":-3.2885384559631348,"59":-0.25411394238471985,"60":3.2685468196868896,"61":-3.6788675785064697,"62":0.3450833261013031,"63":-3.508546829223633,"64":-0.3235977292060852,"65":3.7170217037200928,"66":0.30601927638053894,"67":-2.802482843399048,"68":-0.217161625623703,"69":-3.7333109378814697,"70":-3.4934074878692627,"71":2.702544689178467,"72":2.766002893447876,"73":0.219306081533432,"74":-3.8388524055480957,"75":-3.2897119522094727,"76":-0.2700583040714264,"77":-3.4896457195281982,"78":0.5595303773880005,"79":-3.277888059616089,"80":3.125194787979126,"81":-2.9590609073638916,"82":-0.11001720279455185,"83":-2.9653306007385254,"84":-0.36228033900260925,"85":2.8795206546783447,"86":-0.1250554621219635,"87":-3.280179262161255,"88":-1.8073242902755737,"89":-2.833641290664673,"90":-2.9378104209899902,"91":-3.015986919403076,"92":3.1617391109466553,"93":0.7172766923904419,"94":-2.92419695854187,"95":-3.0132455825805664,"96":-0.46114423871040344,"97":-2.8307416439056396,"98":-0.9245670437812805,"99":-0.6885460019111633,"100":3.1660847663879395,"101":-3.610509157180786,"102":0.4555627703666687,"103":-3.3240416049957275,"104":-0.4055366814136505,"105":3.6273818016052246,"106":0.45542842149734497,"107":-2.645357847213745,"108":-1.127052903175354,"109":-3.547438621520996,"110":-3.444164276123047,"111":2.798746109008789,"112":2.779515027999878,"113":0.43492260575294495,"114":-3.669741153717041,"115":-3.3332560062408447,"116":-0.4149205684661865,"117":-3.502142906188965,"118":0.1206933930516243,"119":-3.152874231338501,"120":2.97296142578125,"121":-3.717888116836548,"122":-4.145139694213867,"123":-4.568786144256592,"124":-0.7148633599281311,"125":4.215628623962402,"126":1.9444561004638672,"127":-3.7203845977783203,"128":-1.9085493087768555,"129":-4.104118347167969,"130":-3.4671366214752197,"131":-2.55814266204834,"132":3.7281174659729004,"133":1.1012901067733765,"134":-4.045122146606445,"135":-2.876910924911499,"136":-0.37508508563041687,"137":-3.5820932388305664,"138":0.3630252480506897,"139":-0.7206629514694214,"140":-0.32868367433547974,"141":0.18865330517292023,"142":-0.2603033483028412,"143":-0.09206439554691315,"144":0.15674075484275818,"145":-0.0903710350394249,"146":-0.3016941547393799,"147":-8.162179946899414,"148":0.9844637513160706,"149":1.5538380146026611,"150":5.157654285430908,"151":2.7999765872955322,"152":-3.3453140258789062,"153":-0.4652133882045746,"154":1.6425280570983887,"155":0.4848199784755707,"156":0.42963406443595886,"157":0.003994334954768419,"158":0.27897071838378906,"159":-1.2432374954223633,"160":3.3485240936279297,"161":-2.75540828704834,"162":1.6436675786972046,"163":-1.8965823650360107,"164":-2.3898918628692627,"165":2.238069772720337,"166":-1.715916395187378,"167":-3.311940908432007,"168":-4.2466559410095215,"169":-2.674121618270874,"170":-2.832329034805298,"171":-3.2693042755126953,"172":3.044645071029663,"173":2.9801700115203857,"174":-2.5999839305877686,"175":-3.0400729179382324,"176":-2.458254337310791,"177":-1.7088751792907715,"178":-3.137993335723877,"179":0.34520238637924194,"180":3.10573410987854,"181":-3.4943017959594727,"182":0.3929322361946106,"183":-3.215158462524414,"184":-1.7260477542877197,"185":3.456056833267212,"186":0.4259421229362488,"187":-2.6161651611328125,"188":-2.885878324508667,"189":-3.4440224170684814,"190":-3.4814841747283936,"191":2.6756677627563477,"192":2.6520872116088867,"193":2.0371174812316895,"194":-3.5087945461273193,"195":-3.409050941467285,"196":-1.7332406044006348,"197":-3.3442156314849854,"198":-0.3652661442756653,"199":-2.9674339294433594,"200":-2.5165603160858154,"201":2.9210879802703857,"202":-0.06208406388759613,"203":3.295330286026001,"204":-2.235973358154297,"205":-3.474855422973633,"206":0.05462313070893288,"207":-0.6572568416595459,"208":-3.1498966217041016,"209":0.5348476767539978,"210":-1.7908989191055298,"211":-3.034592866897583,"212":-3.0606322288513184,"213":2.496882200241089,"214":-1.1328575611114502,"215":-3.2893502712249756,"216":-2.24220871925354,"217":3.253469467163086,"218":-0.5268393158912659,"219":3.5343525409698486,"220":-3.879359006881714,"221":3.445260763168335,"222":-0.09346906840801239,"223":3.234687566757202,"224":0.553548276424408,"225":-3.406818151473999,"226":-0.10692296177148819,"227":3.8691813945770264,"228":1.812319040298462,"229":3.4420583248138428,"230":3.3283817768096924,"231":2.945474863052368,"232":-2.342203378677368,"233":-0.8191848397254944,"234":3.3650319576263428,"235":0.9889386296272278,"236":0.5921985507011414,"237":3.3325612545013428,"238":0.538284420967102,"239":3.4260966777801514,"240":-3.09316086769104,"241":1.9037563800811768,"242":2.901186227798462,"243":-0.6283224821090698,"244":3.48105525970459,"245":-5.391829013824463,"246":2.893874406814575,"247":2.7467520236968994,"248":4.947757720947266,"249":1.6402777433395386,"250":1.9845608472824097,"251":3.140007257461548,"252":-2.8299529552459717,"253":-3.9874768257141113,"254":1.4422250986099243,"255":1.7341405153274536,"256":-2.4435746669769287,"257":-0.18079166114330292,"258":3.9337682723999023,"259":5.50175142288208,"260":3.921292781829834,"261":-3.2317609786987305,"262":-0.5812029838562012,"263":-3.398998498916626,"264":-0.7394818067550659,"265":3.1629672050476074,"266":-0.09431740641593933,"267":-3.9851977825164795,"268":-2.470219135284424,"269":-3.235834836959839,"270":-2.9413352012634277,"271":-3.698195457458496,"272":3.0103213787078857,"273":1.2315716743469238,"274":-3.2261459827423096,"275":-2.8178508281707764,"276":-0.8144645690917969,"277":-3.101318120956421,"278":-1.713578462600708,"279":-2.0802998542785645,"280":3.1016077995300293,"281":-3.228898048400879,"282":0.422926127910614,"283":-2.9930362701416016,"284":-0.882312536239624,"285":3.3044285774230957,"286":0.4952298402786255,"287":-2.5470666885375977,"288":-1.7788214683532715,"289":-3.250053644180298,"290":-3.3367791175842285,"291":2.7170636653900146,"292":2.6345767974853516,"293":1.0764925479888916,"294":-3.361888885498047,"295":-3.4391651153564453,"296":-1.0049690008163452,"297":-3.2109434604644775,"298":-0.08684622496366501,"299":-2.793128728866577,"300":-1.7281699180603027,"301":-2.9483025074005127,"302":-0.025182487443089485,"303":-2.896916151046753,"304":-0.7195075750350952,"305":2.836735248565674,"306":-0.08065551519393921,"307":-1.630213975906372,"308":-2.2742092609405518,"309":-3.0185699462890625,"310":-2.9754083156585693,"311":1.9887661933898926,"312":4.420792579650879,"313":1.09442937374115,"314":-2.9751811027526855,"315":-0.8883700370788574,"316":-0.8445408344268799,"317":3.0459742546081543,"318":-1.0624914169311523,"319":4.832608222961426,"320":4.923101425170898,"321":-2.984431266784668,"322":1.002121925354004,"323":-2.916889190673828,"324":-2.0524821281433105,"325":2.8734171390533447,"326":-1.5586462020874023,"327":-4.554718494415283,"328":-3.1783595085144043,"329":-2.996115207672119,"330":-2.8769772052764893,"331":-4.887873649597168,"332":2.241621732711792,"333":2.4847536087036133,"334":-2.9384775161743164,"335":-1.9433107376098633,"336":-2.201263666152954,"337":-2.876267671585083,"338":-2.870131015777588,"339":-3.27260160446167,"340":3.1574294567108154,"341":-3.8696086406707764,"342":0.14452017843723297,"343":-3.708706855773926,"344":-0.5007917881011963,"345":3.8283567428588867,"346":0.26474305987358093,"347":-2.910900354385376,"348":-0.8388921022415161,"349":-3.7955188751220703,"350":-3.4318771362304688,"351":2.957423448562622,"352":3.0328357219696045,"353":0.38142845034599304,"354":-3.9070334434509277,"355":-3.2539665699005127,"356":-0.34538406133651733,"357":-3.562326192855835,"358":0.16764526069164276,"359":2.7282254695892334,"360":2.726703405380249,"361":-4.01924991607666,"362":-1.6941474676132202,"363":-4.838136196136475,"364":0.5171282291412354,"365":4.485983371734619,"366":-2.4038021564483643,"367":-3.1686599254608154,"368":-1.075270414352417,"369":-4.031777381896973,"370":-3.9005978107452393,"371":-2.441378593444824,"372":3.206575393676758,"373":0.005308204796165228,"374":-4.101055145263672,"375":-3.044144868850708,"376":0.4556978940963745,"377":-3.5513837337493896,"378":-0.3689967095851898,"379":-1.3268334865570068,"380":-3.2385172843933105,"381":2.037757396697998,"382":-2.1722283363342285,"383":2.237647294998169,"384":-2.829327344894409,"385":-1.8692185878753662,"386":-2.1066629886627197,"387":3.987852096557617,"388":-2.381209135055542,"389":2.077908515930176,"390":2.5776686668395996,"391":-2.647221326828003,"392":-2.9387385845184326,"393":2.390427589416504,"394":1.8122320175170898,"395":-3.3197293281555176,"396":2.1616268157958984,"397":2.2364604473114014,"398":-1.915116548538208,"399":2.6569314002990723}},"outputBias":{"rows":20,"columns":1,"weights":{"0":-2.3211429119110107,"1":3.498893976211548,"2":-3.6735284328460693,"3":3.163581132888794,"4":-0.06477685272693634,"5":3.4104580879211426,"6":-3.760267734527588,"7":0.18289496004581451,"8":-2.719303607940674,"9":3.6856496334075928,"10":2.743483543395996,"11":2.8596770763397217,"12":1.0622262954711914,"13":-2.698881149291992,"14":3.8503477573394775,"15":2.812189817428589,"16":-2.8879055976867676,"17":3.2118844985961914,"18":-4.067329406738281,"19":2.946444034576416}},"cellActivationMatrix":{"rows":20,"columns":5,"weights":{"0":-0.8121680617332458,"1":-1.1694424152374268,"2":-3.8122823238372803,"3":-5.102139472961426,"4":-3.547921657562256,"5":0.21892768144607544,"6":0.5531131625175476,"7":5.145113468170166,"8":4.2124786376953125,"9":6.110189437866211,"10":-1.9241207838058472,"11":-1.8179931640625,"12":1.6798571348190308,"13":3.091020345687866,"14":0.6660290956497192,"15":2.583003282546997,"16":3.015033721923828,"17":7.1650567054748535,"18":2.0383365154266357,"19":6.342416763305664,"20":1.672083854675293,"21":0.5474317073822021,"22":-4.061610221862793,"23":-4.908656597137451,"24":-2.9001543521881104,"25":-3.260291337966919,"26":-1.3235589265823364,"27":-3.2630414962768555,"28":-3.6332356929779053,"29":-2.0176501274108887,"30":1.4811224937438965,"31":2.9712345600128174,"32":3.068772554397583,"33":3.766585111618042,"34":3.002077341079712,"35":1.5037182569503784,"36":2.144794225692749,"37":4.6247687339782715,"38":5.493155002593994,"39":3.3400094509124756,"40":2.1670732498168945,"41":1.7803819179534912,"42":-3.362614154815674,"43":-3.76008939743042,"44":-3.429553270339966,"45":0.91150963306427,"46":0.9981436133384705,"47":2.80700421333313,"48":3.0503580570220947,"49":2.9919259548187256,"50":0.7580029964447021,"51":1.0090129375457764,"52":2.9837777614593506,"53":3.446913242340088,"54":3.046997308731079,"55":6.074557304382324,"56":6.359404563903809,"57":1.8682597875595093,"58":1.488966703414917,"59":2.903549909591675,"60":-0.19314533472061157,"61":5.764774799346924,"62":0.9077426791191101,"63":0.08947179466485977,"64":-4.337689399719238,"65":-1.4033067226409912,"66":-0.9308716654777527,"67":4.122125625610352,"68":4.303544998168945,"69":3.5954504013061523,"70":1.3900388479232788,"71":1.0803194046020508,"72":2.208369016647339,"73":2.1747822761535645,"74":2.3762741088867188,"75":5.9779438972473145,"76":-0.40015241503715515,"77":-5.3612380027771,"78":-6.137944221496582,"79":-4.510365962982178,"80":3.5214250087738037,"81":3.593839406967163,"82":-2.5271451473236084,"83":-2.018004894256592,"84":-3.1356821060180664,"85":-2.468310832977295,"86":-2.3061370849609375,"87":3.948857069015503,"88":4.502829551696777,"89":3.2704408168792725,"90":-2.0617144107818604,"91":-1.613174319267273,"92":-1.6355786323547363,"93":-0.6577181816101074,"94":-1.0234570503234863,"95":-3.0134756565093994,"96":-2.82853364944458,"97":3.574934482574463,"98":3.854717254638672,"99":2.2497737407684326}},"cellActivationHidden":{"rows":20,"columns":20,"weights":{"0":2.999119997024536,"1":-2.7263693809509277,"2":-0.2006005346775055,"3":-2.7591640949249268,"4":-1.9690381288528442,"5":2.7933571338653564,"6":0.006621972192078829,"7":-3.149836540222168,"8":-2.879197835922241,"9":-2.7219254970550537,"10":-2.881852388381958,"11":-2.929677724838257,"12":3.15151309967041,"13":2.5225472450256348,"14":-2.644354820251465,"15":-3.010932207107544,"16":-2.2175610065460205,"17":-2.809293270111084,"18":-2.7975988388061523,"19":-2.939000368118286,"20":-3.185086250305176,"21":3.7738685607910156,"22":0.817653477191925,"23":3.841602325439453,"24":0.8164592981338501,"25":-3.616469383239746,"26":0.7033984065055847,"27":4.217803478240967,"28":2.3597867488861084,"29":3.825561761856079,"30":3.0258405208587646,"31":2.469428539276123,"32":-4.024545669555664,"33":-0.9942185878753662,"34":3.819613456726074,"35":2.470656394958496,"36":0.5649448037147522,"37":3.5403249263763428,"38":2.083969831466675,"39":3.273834228515625,"40":0.21531763672828674,"41":-1.063538908958435,"42":-0.8332507014274597,"43":-1.0388928651809692,"44":0.10845661908388138,"45":0.8690317273139954,"46":-0.7895433902740479,"47":-1.4494167566299438,"48":0.2116432785987854,"49":-1.0564773082733154,"50":-0.20704418420791626,"51":0.7204748392105103,"52":1.2772176265716553,"53":-0.37899643182754517,"54":-1.0844440460205078,"55":0.48131316900253296,"56":0.4578320384025574,"57":-0.6758413910865784,"58":-0.7558426260948181,"59":-1.054853916168213,"60":-3.4388413429260254,"61":0.4690485894680023,"62":0.4627799987792969,"63":0.23203818500041962,"64":3.108530282974243,"65":-0.160004660487175,"66":0.44601771235466003,"67":0.7637432813644409,"68":3.912442684173584,"69":6.374284744262695,"70":6.014285564422607,"71":3.1551339626312256,"72":-3.829296350479126,"73":-3.2239325046539307,"74":6.388402462005615,"75":5.835170745849609,"76":2.980578899383545,"77":-0.36063143610954285,"78":0.7747309803962708,"79":-1.932492971420288,"80":-3.258775234222412,"81":1.2678982019424438,"82":1.4735174179077148,"83":1.3733577728271484,"84":-0.1450609713792801,"85":-0.9591751098632812,"86":1.3464593887329102,"87":4.852001667022705,"88":-0.3189871311187744,"89":1.2582308053970337,"90":-0.14336612820625305,"91":1.9932781457901,"92":1.4651508331298828,"93":0.7461397051811218,"94":1.2373133897781372,"95":-1.0882463455200195,"96":-0.8322939872741699,"97":1.006490707397461,"98":1.1732630729675293,"99":4.619778633117676,"100":3.37939715385437,"101":1.5506964921951294,"102":-1.0432350635528564,"103":-4.3361496925354,"104":-3.0731618404388428,"105":-2.016524076461792,"106":-1.057861566543579,"107":-4.87857723236084,"108":-3.0313668251037598,"109":-4.754188537597656,"110":-3.710505723953247,"111":-2.419135332107544,"112":4.769844055175781,"113":2.626286268234253,"114":-4.7480387687683105,"115":-3.1903879642486572,"116":-2.6741628646850586,"117":2.46207332611084,"118":-0.8107079267501831,"119":2.037740707397461,"120":0.4655866026878357,"121":-4.807258605957031,"122":-1.174250841140747,"123":1.0245050191879272,"124":3.1903562545776367,"125":-1.1072413921356201,"126":-0.5766820907592773,"127":-2.0142548084259033,"128":3.202000379562378,"129":0.8873856067657471,"130":1.6906365156173706,"131":0.9595773816108704,"132":1.9494266510009766,"133":-3.629875898361206,"134":0.8561853766441345,"135":3.0391881465911865,"136":3.6073050498962402,"137":-4.065060615539551,"138":-0.4584735929965973,"139":-4.096670627593994,"140":-2.2463278770446777,"141":2.6894025802612305,"142":-0.07089748233556747,"143":1.4854995012283325,"144":0.01424469891935587,"145":-2.081451416015625,"146":-0.026352940127253532,"147":2.7590837478637695,"148":0.2778831124305725,"149":2.527892827987671,"150":2.83754563331604,"151":2.478119373321533,"152":-2.703768491744995,"153":-0.16745588183403015,"154":2.575507640838623,"155":2.976140260696411,"156":0.0312286876142025,"157":0.21439392864704132,"158":0.0682935044169426,"159":-0.515926718711853,"160":-3.4514482021331787,"161":1.4213100671768188,"162":1.1420073509216309,"163":1.364660382270813,"164":-0.1361313909292221,"165":-1.1953505277633667,"166":0.9760013222694397,"167":4.936756610870361,"168":-0.2019868642091751,"169":1.4218864440917969,"170":0.4480709135532379,"171":2.0454373359680176,"172":1.364707112312317,"173":0.47956758737564087,"174":1.46684992313385,"175":-0.6252169013023376,"176":-0.49821940064430237,"177":1.0031667947769165,"178":0.8980346918106079,"179":4.501280784606934,"180":-3.1984407901763916,"181":3.7073934078216553,"182":0.7908225655555725,"183":3.804389238357544,"184":0.9691656231880188,"185":-3.5241007804870605,"186":0.7366721630096436,"187":4.144855499267578,"188":2.5993385314941406,"189":3.791383743286133,"190":3.0233829021453857,"191":2.5268120765686035,"192":-4.050963878631592,"193":-1.4544073343276978,"194":3.6920344829559326,"195":2.633697271347046,"196":0.8881648778915405,"197":3.618584394454956,"198":2.3369622230529785,"199":3.45322847366333,"200":-3.1614744663238525,"201":3.6145715713500977,"202":0.7492157816886902,"203":3.792212724685669,"204":0.8129356503486633,"205":-3.6087634563446045,"206":0.6627576351165771,"207":3.9710211753845215,"208":2.4913578033447266,"209":3.6435906887054443,"210":2.983210563659668,"211":2.4892687797546387,"212":-3.8733749389648438,"213":-1.2929458618164062,"214":3.6707653999328613,"215":2.5498390197753906,"216":0.6932605504989624,"217":3.4851176738739014,"218":2.0755481719970703,"219":3.301445960998535,"220":-0.11840982735157013,"221":-2.168064594268799,"222":-2.9434990882873535,"223":-2.238874912261963,"224":-3.7759592533111572,"225":2.271099090576172,"226":-2.957974910736084,"227":5.538634777069092,"228":-5.423336029052734,"229":-2.1362688541412354,"230":-2.8294122219085693,"231":0.018338967114686966,"232":2.6017065048217773,"233":4.595529556274414,"234":-2.050185203552246,"235":2.3577816486358643,"236":2.1134750843048096,"237":-2.4471466541290283,"238":-4.607680797576904,"239":-1.6720519065856934,"240":-3.1065757274627686,"241":3.940803289413452,"242":0.25823259353637695,"243":3.701349973678589,"244":-0.620544970035553,"245":-3.7935702800750732,"246":-0.23806491494178772,"247":3.302685022354126,"248":-1.9315418004989624,"249":3.8580758571624756,"250":3.3159594535827637,"251":-3.1294970512390137,"252":-3.242642641067505,"253":1.19286048412323,"254":3.9203011989593506,"255":-3.119194269180298,"256":-0.8049503564834595,"257":3.672365188598633,"258":-1.2175174951553345,"259":3.563997507095337,"260":3.068312883377075,"261":-1.3590813875198364,"262":-1.5491777658462524,"263":-1.4571911096572876,"264":0.3083983063697815,"265":1.0699942111968994,"266":-1.4552701711654663,"267":-4.627784729003906,"268":0.32550469040870667,"269":-1.433668851852417,"270":0.09431244432926178,"271":-1.668984293937683,"272":-0.9480413794517517,"273":-0.7982519865036011,"274":-1.4560770988464355,"275":1.1218308210372925,"276":0.9451819658279419,"277":-0.9431951642036438,"278":-1.2594826221466064,"279":-4.524770259857178,"280":-1.742961049079895,"281":3.262478828430176,"282":0.8302456140518188,"283":1.5076823234558105,"284":-0.14110158383846283,"285":-1.931124210357666,"286":0.807508111000061,"287":3.5673561096191406,"288":0.05563551187515259,"289":3.2081806659698486,"290":2.495751142501831,"291":1.4123419523239136,"292":-3.298311710357666,"293":0.3416752815246582,"294":3.316093683242798,"295":2.0311574935913086,"296":-0.4414515793323517,"297":0.2545105814933777,"298":0.6934089660644531,"299":0.4145493507385254,"300":2.9053914546966553,"301":-1.9388539791107178,"302":0.05610348656773567,"303":-2.0447089672088623,"304":-1.4582847356796265,"305":2.0645673274993896,"306":0.1862802803516388,"307":-2.65392804145813,"308":-2.692983865737915,"309":-1.9192872047424316,"310":-2.677407741546631,"311":3.021686553955078,"312":2.6608052253723145,"313":2.4387826919555664,"314":-1.7354724407196045,"315":2.9581332206726074,"316":-1.8578312397003174,"317":-2.313958168029785,"318":-2.388432025909424,"319":-2.279703140258789,"320":-3.2578017711639404,"321":1.8970293998718262,"322":0.973659336566925,"323":1.6484510898590088,"324":-0.12648294866085052,"325":-1.5258687734603882,"326":0.913551390171051,"327":4.728213787078857,"328":-0.22514674067497253,"329":1.91930091381073,"330":1.0154156684875488,"331":1.478798270225525,"332":0.2791499197483063,"333":0.5037802457809448,"334":1.9568358659744263,"335":-0.3564995527267456,"336":-0.4746019244194031,"337":1.1873849630355835,"338":0.7362731695175171,"339":4.145191192626953,"340":-2.419773817062378,"341":3.377793312072754,"342":0.6194096803665161,"343":2.6230876445770264,"344":0.03500764071941376,"345":-2.957742929458618,"346":0.541901707649231,"347":3.633362054824829,"348":0.21415556967258453,"349":3.442509174346924,"350":2.933722972869873,"351":1.6398204565048218,"352":-3.522406578063965,"353":0.20248478651046753,"354":3.3912389278411865,"355":2.5755503177642822,"356":-0.27951592206954956,"357":1.674564003944397,"358":0.5272200703620911,"359":0.8678878545761108,"360":2.17020320892334,"361":-3.762709140777588,"362":-1.7383769750595093,"363":-3.941460609436035,"364":1.2067112922668457,"365":3.7584545612335205,"366":0.7834247946739197,"367":-3.3819942474365234,"368":1.2139406204223633,"369":-3.8588473796844482,"370":-3.2999536991119385,"371":1.893981695175171,"372":3.2843871116638184,"373":-1.4896161556243896,"374":-3.9760191440582275,"375":-1.0412074327468872,"376":1.4937992095947266,"377":-3.0800905227661133,"378":0.8550254702568054,"379":-2.180570125579834,"380":-0.785991907119751,"381":0.5911493897438049,"382":0.18626739084720612,"383":-0.36122602224349976,"384":-0.22257184982299805,"385":0.2801858186721802,"386":0.25582194328308105,"387":1.0584088563919067,"388":-0.056865986436605453,"389":1.0587712526321411,"390":2.041731834411621,"391":1.3681459426879883,"392":-0.7403491735458374,"393":0.1835574358701706,"394":1.0852360725402832,"395":2.2578964233398438,"396":-0.2180546522140503,"397":-0.747572660446167,"398":0.20382627844810486,"399":-0.9874240159988403}},"cellActivationBias":{"rows":20,"columns":1,"weights":{"0":-3.1728439331054688,"1":4.473509788513184,"2":2.6805579662323,"3":4.127294063568115,"4":1.4351789951324463,"5":-2.7264668941497803,"6":1.5358555316925049,"7":3.8604469299316406,"8":1.7563482522964478,"9":4.1018290519714355,"10":3.2211215496063232,"11":-6.345901966094971,"12":-3.784830093383789,"13":-1.9687280654907227,"14":3.2430005073547363,"15":-3.5730648040771484,"16":0.2429809421300888,"17":6.736604690551758,"18":1.465656042098999,"19":3.817094326019287}}},{"inputMatrix":{"rows":20,"columns":20,"weights":{"0":3.695194721221924,"1":3.4401750564575195,"2":3.3733110427856445,"3":1.9362292289733887,"4":-2.3137428760528564,"5":-2.048335552215576,"6":9.134525299072266,"7":-3.335822582244873,"8":-5.6218581199646,"9":1.3946658372879028,"10":-3.9947824478149414,"11":-8.555764198303223,"12":-3.562293767929077,"13":5.211517810821533,"14":1.430908441543579,"15":-4.598098278045654,"16":-3.4782631397247314,"17":1.6891870498657227,"18":1.7733118534088135,"19":-1.342248558998108,"20":4.202300548553467,"21":-5.599023818969727,"22":-1.1051639318466187,"23":-8.88670539855957,"24":5.128423690795898,"25":9.211308479309082,"26":0.5278386473655701,"27":-5.981166362762451,"28":-1.5900852680206299,"29":-4.28648042678833,"30":0.22803303599357605,"31":-2.119645357131958,"32":5.856414318084717,"33":-0.3477213680744171,"34":-4.46574068069458,"35":2.1007003784179688,"36":0.3084404468536377,"37":-2.1440012454986572,"38":0.579138994216919,"39":-6.214310646057129,"40":5.316652297973633,"41":2.4935224056243896,"42":4.308925151824951,"43":3.220568895339966,"44":-4.38325834274292,"45":-2.6651153564453125,"46":3.3893191814422607,"47":-2.080460548400879,"48":-5.3358540534973145,"49":2.5303001403808594,"50":-2.668217420578003,"51":-8.584460258483887,"52":-5.727504253387451,"53":5.372438430786133,"54":2.5330092906951904,"55":-5.496804237365723,"56":-4.702631950378418,"57":3.107250928878784,"58":0.8648689985275269,"59":0.22938942909240723,"60":6.378942489624023,"61":-6.598176956176758,"62":-1.2420042753219604,"63":-10.831422805786133,"64":5.231257438659668,"65":11.312808990478516,"66":1.4840847253799438,"67":-5.912744998931885,"68":4.554113864898682,"69":-5.433091163635254,"70":-1.5563995838165283,"71":-3.066434621810913,"72":5.966930866241455,"73":-6.595265865325928,"74":-5.361191749572754,"75":2.855025291442871,"76":0.7019888162612915,"77":-4.876525402069092,"78":1.2871943712234497,"79":-6.883369445800781,"80":9.30878734588623,"81":-1.7675797939300537,"82":-3.6409711837768555,"83":-0.20830966532230377,"84":6.749819278717041,"85":-4.165313720703125,"86":2.6962859630584717,"87":-1.9083356857299805,"88":4.637729644775391,"89":-3.025810480117798,"90":-10.949434280395508,"91":-14.490140914916992,"92":-2.578136920928955,"93":-5.165806293487549,"94":-2.888594627380371,"95":-9.664076805114746,"96":-0.4210374653339386,"97":1.8073194026947021,"98":11.722528457641602,"99":0.544173538684845,"100":4.279927730560303,"101":-7.503518581390381,"102":-2.9259462356567383,"103":-11.81871509552002,"104":6.784973621368408,"105":12.0006103515625,"106":2.8284151554107666,"107":-5.910469055175781,"108":-1.221398115158081,"109":-7.006317615509033,"110":-2.5311269760131836,"111":-2.5257246494293213,"112":5.930454730987549,"113":-1.4241883754730225,"114":-7.035180568695068,"115":1.858276128768921,"116":1.84280264377594,"117":-3.490238666534424,"118":2.8046371936798096,"119":-5.8441948890686035,"120":7.13070011138916,"121":-4.185718536376953,"122":-0.13930121064186096,"123":-3.1000518798828125,"124":1.3690547943115234,"125":3.555445909500122,"126":-0.220747172832489,"127":-4.280245780944824,"128":-0.7465240359306335,"129":-2.5127346515655518,"130":-5.38811731338501,"131":-9.94279956817627,"132":0.9532932639122009,"133":0.20966272056102753,"134":-2.595454216003418,"135":-1.9026168584823608,"136":0.28566932678222656,"137":-2.9047181606292725,"138":5.631981372833252,"139":-2.3919761180877686,"140":4.391451835632324,"141":-7.091005802154541,"142":-2.5576109886169434,"143":-5.689310073852539,"144":5.859905242919922,"145":6.294316291809082,"146":-2.5764663219451904,"147":-5.748500823974609,"148":0.5697537660598755,"149":-2.5888633728027344,"150":2.3526382446289062,"151":0.3740721046924591,"152":5.704001426696777,"153":-1.979392409324646,"154":-2.6805357933044434,"155":3.527759552001953,"156":4.4354729652404785,"157":-3.8803212642669678,"158":-2.441228151321411,"159":-7.724486827850342,"160":5.328749656677246,"161":-5.345919132232666,"162":-0.14550936222076416,"163":-8.710092544555664,"164":4.638153076171875,"165":9.388582229614258,"166":0.3297850787639618,"167":-5.7363362312316895,"168":4.212597370147705,"169":-3.666853666305542,"170":0.5246776342391968,"171":-2.3672080039978027,"172":5.7048234939575195,"173":-5.929361343383789,"174":-3.93351674079895,"175":2.736332893371582,"176":-0.13242602348327637,"177":-1.9827888011932373,"178":0.2688365578651428,"179":-6.311082363128662,"180":5.622623443603516,"181":-4.939499378204346,"182":0.11231374740600586,"183":-8.671125411987305,"184":4.200554847717285,"185":9.076986312866211,"186":0.2198716551065445,"187":-5.887220859527588,"188":3.5761585235595703,"189":-3.5476269721984863,"190":0.5230183005332947,"191":-2.881211996078491,"192":5.88245964050293,"193":-5.436310291290283,"194":-3.5818893909454346,"195":2.5766451358795166,"196":-0.5351057052612305,"197":-2.186728000640869,"198":0.17167505621910095,"199":-6.440435409545898,"200":1.6505359411239624,"201":-1.8972992897033691,"202":0.704484224319458,"203":-6.018917560577393,"204":-4.780786514282227,"205":6.65419864654541,"206":4.027173042297363,"207":-6.484658241271973,"208":-4.800683498382568,"209":-5.398702144622803,"210":-4.806803226470947,"211":7.26070499420166,"212":8.196728706359863,"213":4.598349571228027,"214":-5.195284366607666,"215":4.404399871826172,"216":-3.590979814529419,"217":-1.9807511568069458,"218":3.218118906021118,"219":-2.6574246883392334,"220":5.914976596832275,"221":-4.725290775299072,"222":0.5679446458816528,"223":-5.870584964752197,"224":-0.2821035385131836,"225":5.840392589569092,"226":0.3203946053981781,"227":-3.6527814865112305,"228":-2.19083309173584,"229":-4.789605617523193,"230":-7.30471658706665,"231":-8.877824783325195,"232":-0.12588997185230255,"233":2.129753828048706,"234":-4.733499050140381,"235":-4.138331413269043,"236":-1.2116304636001587,"237":-6.257410526275635,"238":4.200682640075684,"239":-2.2681050300598145,"240":-0.29034116864204407,"241":-5.247320652008057,"242":-0.01783628575503826,"243":-7.003039360046387,"244":-3.4549202919006348,"245":7.506420135498047,"246":-0.04314647242426872,"247":3.3023946285247803,"248":-3.8770885467529297,"249":2.927126407623291,"250":0.783987820148468,"251":2.646604299545288,"252":-2.1773910522460938,"253":3.9734256267547607,"254":2.683084726333618,"255":9.107341766357422,"256":0.43832406401634216,"257":-4.279036521911621,"258":0.11883632093667984,"259":0.6714791059494019,"260":5.871921062469482,"261":-4.1915507316589355,"262":0.14675115048885345,"263":-7.537802696228027,"264":4.158450603485107,"265":8.0142183303833,"266":0.08471117168664932,"267":-5.826601028442383,"268":3.59730863571167,"269":-2.924144983291626,"270":0.9902667999267578,"271":-2.524479866027832,"272":5.71657657623291,"273":-5.333795070648193,"274":-2.9481327533721924,"275":2.364185333251953,"276":-0.6422194242477417,"277":-1.6847678422927856,"278":-0.12473970651626587,"279":-6.248064994812012,"280":1.1381155252456665,"281":-6.240852355957031,"282":-2.0162441730499268,"283":-1.8469958305358887,"284":2.5884640216827393,"285":6.74699592590332,"286":-2.890596866607666,"287":-3.456277370452881,"288":3.321779489517212,"289":-0.6137658357620239,"290":0.57442307472229,"291":10.618010520935059,"292":7.111418724060059,"293":-3.853830099105835,"294":-1.1700541973114014,"295":2.0084452629089355,"296":4.279947757720947,"297":-6.8603997230529785,"298":3.621272325515747,"299":-1.201714277267456,"300":-1.0962878465652466,"301":-1.9470174312591553,"302":-0.9298105835914612,"303":-7.4047651290893555,"304":6.125481605529785,"305":1.7203288078308105,"306":5.031348705291748,"307":-1.5447837114334106,"308":6.252645015716553,"309":-1.483680009841919,"310":-0.3501112163066864,"311":-1.144141435623169,"312":5.6259613037109375,"313":-6.581218719482422,"314":-1.581593632698059,"315":6.467696666717529,"316":0.36904391646385193,"317":-0.5995922684669495,"318":5.126331806182861,"319":-1.1216235160827637,"320":4.279667854309082,"321":-6.38019323348999,"322":-1.4958726167678833,"323":-8.743181228637695,"324":6.419869422912598,"325":9.174493789672852,"326":0.9897458553314209,"327":-5.910191535949707,"328":0.8381115198135376,"329":-4.369593620300293,"330":0.3141211271286011,"331":-2.060452938079834,"332":5.881946563720703,"333":-2.8452420234680176,"334":-4.615379333496094,"335":2.4344587326049805,"336":1.3645232915878296,"337":-2.5413172245025635,"338":1.0519466400146484,"339":-6.450160503387451,"340":-3.130673408508301,"341":3.736142873764038,"342":-3.955595016479492,"343":2.8519251346588135,"344":0.3533831536769867,"345":-2.4981422424316406,"346":2.7186951637268066,"347":5.346468925476074,"348":1.2641633749008179,"349":-0.7649741172790527,"350":-2.5587949752807617,"351":-5.0560736656188965,"352":-5.10845947265625,"353":-0.7760237455368042,"354":-1.1456793546676636,"355":-9.76540756225586,"356":0.8494014739990234,"357":3.116157054901123,"358":8.407007217407227,"359":9.468942642211914,"360":-1.9413397312164307,"361":-7.122618675231934,"362":6.65636682510376,"363":-1.5069860219955444,"364":1.460384488105774,"365":6.061328411102295,"366":6.486442565917969,"367":1.9977598190307617,"368":1.296663761138916,"369":2.6061782836914062,"370":2.287332534790039,"371":5.06347131729126,"372":3.704726457595825,"373":-1.1379605531692505,"374":2.5791118144989014,"375":1.8912949562072754,"376":-5.188896179199219,"377":-7.661922454833984,"378":7.174502849578857,"379":1.570044755935669,"380":6.08079195022583,"381":3.4372754096984863,"382":4.306399345397949,"383":-2.9390578269958496,"384":-0.24223677814006805,"385":3.0001883506774902,"386":4.367931365966797,"387":-5.397409915924072,"388":-1.0854072570800781,"389":2.8687753677368164,"390":5.115435600280762,"391":-4.2667975425720215,"392":5.378680229187012,"393":-0.5227646231651306,"394":3.303267478942871,"395":1.8906749486923218,"396":-5.424768447875977,"397":1.7043181657791138,"398":-2.5475404262542725,"399":-6.55111026763916}},"inputHidden":{"rows":20,"columns":20,"weights":{"0":-0.08086195588111877,"1":-0.29598256945610046,"2":-11.978303909301758,"3":5.622354507446289,"4":5.486919403076172,"5":7.710483074188232,"6":1.446190595626831,"7":-0.21480241417884827,"8":0.15877190232276917,"9":5.652457237243652,"10":5.733132839202881,"11":-5.432936668395996,"12":5.159575939178467,"13":-1.9033863544464111,"14":-5.5262322425842285,"15":-5.868229866027832,"16":5.836843013763428,"17":-9.241633415222168,"18":1.147832989692688,"19":1.8915739059448242,"20":-1.1712809801101685,"21":1.7037413120269775,"22":0.7435892820358276,"23":-2.979954242706299,"24":-0.9729968309402466,"25":-1.8468142747879028,"26":1.1560709476470947,"27":3.0122013092041016,"28":-3.0010862350463867,"29":-3.0426902770996094,"30":-1.6980935335159302,"31":1.1032483577728271,"32":-0.5051721930503845,"33":3.0890283584594727,"34":2.9887290000915527,"35":3.0874128341674805,"36":-3.088291883468628,"37":-7.53414249420166,"38":-5.515869140625,"39":-3.106675148010254,"40":3.3100802898406982,"41":-0.17690344154834747,"42":-6.836254119873047,"43":4.739372253417969,"44":4.339736461639404,"45":0.3717799186706543,"46":-3.1943039894104004,"47":-4.009485721588135,"48":1.249282956123352,"49":4.720242023468018,"50":-2.307891845703125,"51":-2.9413323402404785,"52":7.953360557556152,"53":-2.804752826690674,"54":-3.988884210586548,"55":-2.2513997554779053,"56":4.6201395988464355,"57":-4.29055118560791,"58":5.170934200286865,"59":4.730388164520264,"60":-1.634019136428833,"61":5.449403285980225,"62":1.406113624572754,"63":-2.948155641555786,"64":-1.495689034461975,"65":-5.391228199005127,"66":1.7254908084869385,"67":3.0821897983551025,"68":-2.9053635597229004,"69":-2.833444118499756,"70":-2.352186441421509,"71":1.527130126953125,"72":0.27956143021583557,"73":2.9521946907043457,"74":2.9619059562683105,"75":2.9253742694854736,"76":-2.931055784225464,"77":-7.283498287200928,"78":-5.872503757476807,"79":-2.836836338043213,"80":4.732536792755127,"81":-5.951415538787842,"82":-2.464276075363159,"83":-0.16205881536006927,"84":5.4845476150512695,"85":6.019491195678711,"86":-4.0469651222229,"87":-6.040839195251465,"88":6.0265631675720215,"89":-0.13873587548732758,"90":-2.0410733222961426,"91":-3.1400980949401855,"92":6.042531490325928,"93":0.11048469692468643,"94":-5.085186958312988,"95":3.280674934387207,"96":-0.07486066967248917,"97":0.579947829246521,"98":-2.0406060218811035,"99":-0.15120543539524078,"100":0.7353351712226868,"101":0.03628498688340187,"102":-1.079314947128296,"103":-2.9982876777648926,"104":0.9021570086479187,"105":0.09046855568885803,"106":-0.6306939721107483,"107":2.4206225872039795,"108":-3.0753426551818848,"109":-2.9773223400115967,"110":0.02359841950237751,"111":-0.7939548492431641,"112":-0.036058973520994186,"113":3.1236350536346436,"114":3.0095555782318115,"115":2.976682186126709,"116":-3.016366958618164,"117":-5.69124698638916,"118":-5.8154377937316895,"119":-3.0067474842071533,"120":3.8396832942962646,"121":-5.940804958343506,"122":-10.643294334411621,"123":-0.014492322690784931,"124":10.174467086791992,"125":6.032362461090088,"126":-2.7793941497802734,"127":-6.058701515197754,"128":6.003798484802246,"129":0.012611167505383492,"130":-0.04516557231545448,"131":-6.963966369628906,"132":5.140072822570801,"133":0.03370148316025734,"134":-2.648681879043579,"135":-0.02382558025419712,"136":0.05645517632365227,"137":-1.0985503196716309,"138":-0.8778746724128723,"139":0.015534785576164722,"140":-0.31352657079696655,"141":3.1152844429016113,"142":0.2637057304382324,"143":-3.0311334133148193,"144":-0.28013378381729126,"145":-3.1140637397766113,"146":0.4006815552711487,"147":3.0799458026885986,"148":-3.067924976348877,"149":-3.09814190864563,"150":-3.0376055240631104,"151":0.35378047823905945,"152":-2.58917236328125,"153":3.0184812545776367,"154":3.1278676986694336,"155":3.0701205730438232,"156":-3.0413334369659424,"157":-6.208467960357666,"158":-3.4511444568634033,"159":-2.99876070022583,"160":-2.721280813217163,"161":1.0458687543869019,"162":2.6498115062713623,"163":-3.038722276687622,"164":-2.6565427780151367,"165":-1.1741398572921753,"166":2.8016390800476074,"167":2.967352867126465,"168":-2.961210012435913,"169":-3.0348966121673584,"170":-0.9990939497947693,"171":2.7879621982574463,"172":0.08972420543432236,"173":3.0054547786712646,"174":3.0643980503082275,"175":3.061877965927124,"176":-2.9459543228149414,"177":-8.450483322143555,"178":-6.039222240447998,"179":-2.9375579357147217,"180":-2.8288352489471436,"181":4.171983242034912,"182":2.8871817588806152,"183":-2.9919698238372803,"184":-2.8188552856445312,"185":-4.042636871337891,"186":2.860610008239746,"187":2.9814910888671875,"188":-2.9735653400421143,"189":-2.984117269515991,"190":-2.273803234100342,"191":2.79557466506958,"192":0.08524209260940552,"193":2.9952504634857178,"194":2.9858314990997314,"195":2.9318454265594482,"196":-3.0321204662323,"197":-8.508883476257324,"198":-5.9168925285339355,"199":-2.8851051330566406,"200":2.5383548736572266,"201":-0.25754010677337646,"202":3.358121395111084,"203":-2.3274669647216797,"204":2.019317865371704,"205":0.09406471997499466,"206":1.25042724609375,"207":2.185457944869995,"208":-0.0032728135120123625,"209":-2.36108136177063,"210":-3.816862106323242,"211":-2.5502984523773193,"212":-1.132960319519043,"213":1.080325722694397,"214":4.306528091430664,"215":2.1545515060424805,"216":-2.4284934997558594,"217":4.368288040161133,"218":-3.055899143218994,"219":-2.465172290802002,"220":2.003199338912964,"221":-5.403232574462891,"222":-9.134950637817383,"223":0.2564891576766968,"224":8.55575180053711,"225":5.859641075134277,"226":-1.2135405540466309,"227":-5.507674694061279,"228":5.459962368011475,"229":0.2830107808113098,"230":0.3403484523296356,"231":-6.460156440734863,"232":5.918189525604248,"233":-0.010247472673654556,"234":-4.898900985717773,"235":-0.36972230672836304,"236":0.32562872767448425,"237":-1.655138373374939,"238":-0.8430341482162476,"239":-0.012442978098988533,"240":5.431252479553223,"241":0.3206620216369629,"242":-5.787966728210449,"243":6.447882652282715,"244":5.5098371505737305,"245":0.41295984387397766,"246":-5.456451892852783,"247":0.43117064237594604,"248":0.8449894189834595,"249":6.890984058380127,"250":5.7443366050720215,"251":-5.516525745391846,"252":-0.7702085971832275,"253":-4.708000183105469,"254":0.6246063709259033,"255":-4.313903331756592,"256":5.792527198791504,"257":2.694631338119507,"258":5.441901683807373,"259":5.619309425354004,"260":-3.0722594261169434,"261":4.546614170074463,"262":3.1817235946655273,"263":-3.0207488536834717,"264":-3.0637176036834717,"265":-4.48655891418457,"266":3.1189403533935547,"267":3.103614330291748,"268":-3.0190184116363525,"269":-3.048896312713623,"270":-4.690707206726074,"271":3.0478193759918213,"272":0.047008637338876724,"273":2.9343390464782715,"274":3.009455442428589,"275":2.980717897415161,"276":-2.9347245693206787,"277":-8.655525207519531,"278":-6.101384162902832,"279":-2.981462240219116,"280":6.2854228019714355,"281":1.6781744956970215,"282":-3.925844192504883,"283":-2.125723123550415,"284":6.2618513107299805,"285":-1.5870907306671143,"286":-6.349541187286377,"287":2.5354554653167725,"288":-1.0535690784454346,"289":-2.7883200645446777,"290":-3.25274920463562,"291":-6.289210319519043,"292":-2.297029972076416,"293":1.5868669748306274,"294":2.7087759971618652,"295":-1.6721656322479248,"296":-2.848036050796509,"297":3.2133469581604004,"298":0.03790440410375595,"299":0.23753279447555542,"300":-6.67285680770874,"301":-1.496462345123291,"302":1.2342954874038696,"303":-2.8427157402038574,"304":-0.7451575994491577,"305":1.3672765493392944,"306":7.173281669616699,"307":-1.365305781364441,"308":1.4473090171813965,"309":-2.9564802646636963,"310":2.2894515991210938,"311":6.7193121910095215,"312":2.414771318435669,"313":1.0051137208938599,"314":2.8079004287719727,"315":2.8600056171417236,"316":-2.9589035511016846,"317":0.12326355278491974,"318":-6.262661457061768,"319":-1.2702258825302124,"320":-1.010511875152588,"321":1.096207857131958,"322":0.6966804265975952,"323":-3.0288825035095215,"324":-0.8508331179618835,"325":-1.3306362628936768,"326":1.1946773529052734,"327":3.0082736015319824,"328":-3.065013885498047,"329":-3.023434638977051,"330":-1.092581033706665,"331":0.9291912913322449,"332":-0.4234941303730011,"333":3.0073349475860596,"334":3.0911760330200195,"335":2.9831559658050537,"336":-3.012327194213867,"337":-7.346322536468506,"338":-5.616744518280029,"339":-3.0629732608795166,"340":0.3824949860572815,"341":-2.157179355621338,"342":-0.6876824498176575,"343":4.898369789123535,"344":0.6745428442955017,"345":2.1266610622406006,"346":-0.3960575759410858,"347":-2.193505048751831,"348":5.024377822875977,"349":4.337582111358643,"350":6.269379615783691,"351":-0.23073060810565948,"352":3.5307154655456543,"353":-5.087646484375,"354":-3.6232376098632812,"355":0.4039257764816284,"356":2.619690418243408,"357":6.188197612762451,"358":-2.0002851486206055,"359":3.757513999938965,"360":2.454177141189575,"361":-3.228132963180542,"362":0.4836491346359253,"363":4.016998767852783,"364":-2.042614221572876,"365":3.4213321208953857,"366":-4.070293426513672,"367":-3.3760061264038086,"368":3.3838679790496826,"369":4.007007122039795,"370":1.9496368169784546,"371":1.5181899070739746,"372":6.805709362030029,"373":-3.7683982849121094,"374":-7.009891033172607,"375":-4.647765636444092,"376":3.9589591026306152,"377":6.178587913513184,"378":-0.561896026134491,"379":3.4039578437805176,"380":0.6073220372200012,"381":2.3887765407562256,"382":5.753834247589111,"383":-2.2260634899139404,"384":-5.607295036315918,"385":-2.4836201667785645,"386":-0.8929738998413086,"387":2.3435521125793457,"388":-2.274860143661499,"389":-2.284459352493286,"390":-10.847356796264648,"391":5.561906814575195,"392":0.7723900079727173,"393":2.338595390319824,"394":2.2900655269622803,"395":2.1907718181610107,"396":-2.4387080669403076,"397":-10.768004417419434,"398":-5.304046154022217,"399":-2.297914743423462}},"inputBias":{"rows":20,"columns":1,"weights":{"0":1.7468278408050537,"1":-5.937696933746338,"2":2.0745887756347656,"3":-6.08992862701416,"4":4.670308589935303,"5":-5.604830741882324,"6":1.7654037475585938,"7":-7.668262481689453,"8":-5.972720623016357,"9":-6.07006311416626,"10":-0.8029582500457764,"11":2.599703550338745,"12":-7.90122652053833,"13":-5.965010166168213,"14":-7.2310471534729,"15":-5.6966753005981445,"16":-6.255884647369385,"17":6.157376289367676,"18":-5.82535457611084,"19":-5.313844680786133}},"forgetMatrix":{"rows":20,"columns":20,"weights":{"0":0.04997958987951279,"1":0.2793216407299042,"2":1.4490643739700317,"3":0.3644911050796509,"4":-0.27664268016815186,"5":0.10169374942779541,"6":1.7930724620819092,"7":2.0118961334228516,"8":-0.6314390897750854,"9":-1.008463978767395,"10":-4.922234058380127,"11":1.2071398496627808,"12":-0.8210523128509521,"13":0.9488624334335327,"14":-1.067112684249878,"15":-5.8478522300720215,"16":-0.8719663023948669,"17":-0.2002904713153839,"18":1.3242311477661133,"19":3.9705092906951904,"20":0.10810557007789612,"21":-1.5042471885681152,"22":-1.790817141532898,"23":-1.7078722715377808,"24":-0.019330468028783798,"25":1.1030830144882202,"26":-2.503497362136841,"27":-2.4767649173736572,"28":0.041066545993089676,"29":-1.584138035774231,"30":0.8522387146949768,"31":1.9143949747085571,"32":2.385874032974243,"33":-0.8931595683097839,"34":-1.4728953838348389,"35":1.774113655090332,"36":0.9277361631393433,"37":-1.3927032947540283,"38":-2.3052258491516113,"39":-2.288661241531372,"40":6.469970226287842,"41":-5.775793552398682,"42":-0.9534803628921509,"43":-8.356752395629883,"44":-0.5879743695259094,"45":8.561141967773438,"46":-3.8393642902374268,"47":-2.694645643234253,"48":-1.2260932922363281,"49":-3.9989020824432373,"50":-2.669059991836548,"51":-1.3382165431976318,"52":5.964084625244141,"53":1.240514874458313,"54":-4.22353982925415,"55":1.256598711013794,"56":4.179924964904785,"57":-7.7044806480407715,"58":0.8353809714317322,"59":-6.970569133758545,"60":0.10871314257383347,"61":-1.141789197921753,"62":-1.3567227125167847,"63":-1.300624132156372,"64":0.2714441120624542,"65":0.9606690406799316,"66":-1.300641417503357,"67":-1.6805541515350342,"68":0.21227948367595673,"69":-1.2665232419967651,"70":0.2041216492652893,"71":1.1964082717895508,"72":1.5916777849197388,"73":-0.7552708387374878,"74":-1.2433964014053345,"75":0.9759934544563293,"76":0.8104481101036072,"77":-0.8532006144523621,"78":-1.117903470993042,"79":-1.5522319078445435,"80":3.7924017906188965,"81":-0.8187139630317688,"82":1.5249536037445068,"83":0.17738477885723114,"84":1.8639918565750122,"85":0.40945932269096375,"86":1.614637017250061,"87":-0.09278533607721329,"88":1.2566720247268677,"89":-1.6292579174041748,"90":-4.623564720153809,"91":-4.133786678314209,"92":1.1432490348815918,"93":-1.1151132583618164,"94":-1.6726218461990356,"95":-5.937118053436279,"96":-3.295400381088257,"97":-0.12815816700458527,"98":3.036818504333496,"99":3.3324804306030273,"100":0.20222356915473938,"101":-1.372789978981018,"102":-1.6989176273345947,"103":-1.5971179008483887,"104":-0.2119668424129486,"105":0.9310826659202576,"106":-2.7305803298950195,"107":-2.55397367477417,"108":-0.18078146874904633,"109":-1.602046251296997,"110":1.142175316810608,"111":1.9585870504379272,"112":2.4816837310791016,"113":-0.7392035722732544,"114":-1.3461945056915283,"115":1.7289631366729736,"116":0.7451868653297424,"117":-1.4549015760421753,"118":-2.5546255111694336,"119":-2.4369170665740967,"120":-0.30822253227233887,"121":-1.3251514434814453,"122":1.8611531257629395,"123":-0.9638376832008362,"124":-0.3421453833580017,"125":1.4231029748916626,"126":1.9861093759536743,"127":2.13154935836792,"128":-0.7221808433532715,"129":-1.3432252407073975,"130":-3.385720729827881,"131":0.4420771598815918,"132":2.6219935417175293,"133":1.112512230873108,"134":-1.3656632900238037,"135":-4.30927848815918,"136":-1.1218066215515137,"137":-1.2479290962219238,"138":1.5434560775756836,"139":3.7164902687072754,"140":0.25065284967422485,"141":-2.39341402053833,"142":-2.621669054031372,"143":-2.6000020503997803,"144":0.7623065710067749,"145":2.2080793380737305,"146":-2.646212100982666,"147":-2.8407578468322754,"148":0.8336231708526611,"149":-2.4643795490264893,"150":0.6454527378082275,"151":2.4790127277374268,"152":2.8181874752044678,"153":-1.9421191215515137,"154":-2.3660106658935547,"155":2.2111382484436035,"156":1.9813095331192017,"157":-2.1901721954345703,"158":-2.5007855892181396,"159":-2.655871868133545,"160":0.15425647795200348,"161":-1.6648545265197754,"162":-1.8188722133636475,"163":-1.80022394657135,"164":0.4880828261375427,"165":1.3467978239059448,"166":-1.7671456336975098,"167":-2.2920148372650146,"168":0.4358244240283966,"169":-1.7069613933563232,"170":0.39399421215057373,"171":1.6017719507217407,"172":2.156045436859131,"173":-1.1465551853179932,"174":-1.7486786842346191,"175":1.5299574136734009,"176":1.2158335447311401,"177":-1.2724709510803223,"178":-1.5930399894714355,"179":-2.057955265045166,"180":0.17137223482131958,"181":-1.497636318206787,"182":-1.640831708908081,"183":-1.6260241270065308,"184":0.38043442368507385,"185":1.1458425521850586,"186":-1.5603805780410767,"187":-2.0398828983306885,"188":0.38985925912857056,"189":-1.552119255065918,"190":0.24864666163921356,"191":1.3597179651260376,"192":1.8592692613601685,"193":-0.8911601305007935,"194":-1.5153398513793945,"195":1.2244616746902466,"196":0.9447060823440552,"197":-1.0860342979431152,"198":-1.3988754749298096,"199":-1.8439726829528809,"200":3.180842876434326,"201":2.8598201274871826,"202":2.8754756450653076,"203":2.8334922790527344,"204":-2.997741937637329,"205":1.4922833442687988,"206":-3.280346393585205,"207":-3.470667839050293,"208":-3.05653977394104,"209":2.8384971618652344,"210":3.114485740661621,"211":-2.9394519329071045,"212":3.348195791244507,"213":2.9680466651916504,"214":2.7880442142486572,"215":2.988287925720215,"216":-2.909213066101074,"217":2.454782485961914,"218":-3.2846062183380127,"219":-3.285454273223877,"220":-0.029592173174023628,"221":0.360927939414978,"222":1.204543113708496,"223":0.30317166447639465,"224":-0.3565564453601837,"225":-0.09231981635093689,"226":1.2050007581710815,"227":4.201700210571289,"228":-0.9493081569671631,"229":0.7612192630767822,"230":-5.934945583343506,"231":2.28373384475708,"232":0.4199281930923462,"233":0.8655982613563538,"234":0.723505437374115,"235":-4.081724643707275,"236":-0.7773246765136719,"237":-0.13347703218460083,"238":0.7843363881111145,"239":4.311357498168945,"240":3.2974047660827637,"241":-0.36706987023353577,"242":-2.4028565883636475,"243":-0.0948808342218399,"244":-3.2746963500976562,"245":0.2744270861148834,"246":-2.3166890144348145,"247":-2.472097635269165,"248":-3.2340221405029297,"249":0.38833072781562805,"250":-0.24218134582042694,"251":-3.949040412902832,"252":-3.127356767654419,"253":3.5463926792144775,"254":0.29728710651397705,"255":3.4674363136291504,"256":2.7726073265075684,"257":-0.39074110984802246,"258":-2.418233871459961,"259":-2.5929360389709473,"260":0.04099997878074646,"261":-1.4347220659255981,"262":-1.653159499168396,"263":-1.695189118385315,"264":0.3226594924926758,"265":1.2594410181045532,"266":-1.6796108484268188,"267":-1.9805939197540283,"268":0.3237532079219818,"269":-1.5062682628631592,"270":0.3227810859680176,"271":1.476994276046753,"272":1.956156849861145,"273":-1.0413169860839844,"274":-1.4388701915740967,"275":1.3422802686691284,"276":0.9359338283538818,"277":-1.1414350271224976,"278":-1.3344547748565674,"279":-1.8397881984710693,"280":-0.7247097492218018,"281":-2.961597204208374,"282":0.2767447829246521,"283":-2.8372745513916016,"284":-2.5402708053588867,"285":2.8626978397369385,"286":3.2585692405700684,"287":-0.18478913605213165,"288":-1.9009215831756592,"289":-2.87978458404541,"290":-2.7412784099578857,"291":0.5925271511077881,"292":-2.2702691555023193,"293":0.6896623969078064,"294":-2.889334201812744,"295":-1.839393138885498,"296":-1.3428453207015991,"297":-2.821220636367798,"298":1.5244475603103638,"299":-2.8034017086029053,"300":1.8029495477676392,"301":-0.17939622700214386,"302":-0.1486678570508957,"303":-0.19228558242321014,"304":-0.003327851416543126,"305":0.042292699217796326,"306":-0.5514342188835144,"307":-0.22499246895313263,"308":-0.042404696345329285,"309":-0.14137105643749237,"310":-0.039029039442539215,"311":-1.7010618448257446,"312":1.972380518913269,"313":-0.05252227187156677,"314":-0.14265374839305878,"315":0.06949948519468307,"316":0.13033178448677063,"317":-0.10864134132862091,"318":-0.12482099235057831,"319":-0.1917078047990799,"320":0.14183321595191956,"321":-2.2408406734466553,"322":-2.3839242458343506,"323":-2.3607709407806396,"324":0.5849131941795349,"325":1.949650526046753,"326":-2.2655675411224365,"327":-2.5689890384674072,"328":0.6758150458335876,"329":-2.1748523712158203,"330":0.4124506413936615,"331":2.1417739391326904,"332":2.608350992202759,"333":-1.5733044147491455,"334":-2.263498306274414,"335":2.0045759677886963,"336":1.64988112449646,"337":-1.7897756099700928,"338":-2.1216845512390137,"339":-2.501171827316284,"340":-2.5433826446533203,"341":4.866776466369629,"342":0.618829071521759,"343":5.33342981338501,"344":1.242241621017456,"345":-5.3364577293396,"346":0.39286842942237854,"347":4.77269983291626,"348":1.348662257194519,"349":4.883303642272949,"350":4.182267189025879,"351":-4.466893672943115,"352":-1.8292405605316162,"353":-0.9407345056533813,"354":5.117481231689453,"355":-4.8008928298950195,"356":0.8904979825019836,"357":3.949561357498169,"358":-0.554252028465271,"359":4.653651237487793,"360":1.8755666017532349,"361":-6.049571514129639,"362":0.2843206226825714,"363":-6.0028581619262695,"364":-2.4747180938720703,"365":5.953120708465576,"366":0.3162245750427246,"367":-3.2199840545654297,"368":-2.588510513305664,"369":-5.994954586029053,"370":0.31908002495765686,"371":1.1141358613967896,"372":3.5343968868255615,"373":0.7132384181022644,"374":-5.918780326843262,"375":1.2758190631866455,"376":-1.4636679887771606,"377":-6.02970552444458,"378":1.1744894981384277,"379":-5.88575553894043,"380":0.04181802272796631,"381":-0.4505176544189453,"382":-0.6253324747085571,"383":-0.5637080073356628,"384":0.171229749917984,"385":0.48941317200660706,"386":-0.5787059664726257,"387":-0.7963356971740723,"388":0.07135389745235443,"389":-0.5868082642555237,"390":0.1262379139661789,"391":0.5614007115364075,"392":0.6995896697044373,"393":-0.3684538006782532,"394":-0.4443691372871399,"395":0.38688674569129944,"396":0.2606198787689209,"397":-0.39148586988449097,"398":-0.4367181658744812,"399":-0.7028419375419617}},"forgetHidden":{"rows":20,"columns":20,"weights":{"0":3.598081350326538,"1":-1.1886264085769653,"2":-7.419402122497559,"3":2.884338855743408,"4":6.785414218902588,"5":2.8489081859588623,"6":-2.979384183883667,"7":-1.2666831016540527,"8":1.4206674098968506,"9":2.897026538848877,"10":2.9030890464782715,"11":-7.593804836273193,"12":-0.7188935875892639,"13":-2.047449827194214,"14":-2.5456790924072266,"15":-2.7855982780456543,"16":2.8978936672210693,"17":0.4916897714138031,"18":2.007333278656006,"19":2.0645360946655273,"20":-2.7960472106933594,"21":2.721552610397339,"22":2.840975046157837,"23":-2.4430694580078125,"24":-2.8060848712921143,"25":-2.7666265964508057,"26":2.8503904342651367,"27":2.6077284812927246,"28":-2.5627217292785645,"29":-2.474849224090576,"30":-2.786278247833252,"31":2.8343734741210938,"32":-2.456362247467041,"33":2.466702938079834,"34":2.4836690425872803,"35":2.4300944805145264,"36":-2.5202975273132324,"37":-1.8886140584945679,"38":-2.385038137435913,"39":-2.4976518154144287,"40":0.13881497085094452,"41":-5.827757358551025,"42":-4.481153964996338,"43":-1.5448120832443237,"44":6.081131935119629,"45":4.086467266082764,"46":-1.3122750520706177,"47":-0.8459926247596741,"48":5.860927581787109,"49":-1.5060168504714966,"50":-4.789068222045898,"51":-5.609800815582275,"52":3.006812572479248,"53":-2.111727714538574,"54":-4.165312767028809,"55":1.6406923532485962,"56":-1.4844932556152344,"57":-4.9264092445373535,"58":2.184054136276245,"59":-0.7204998731613159,"60":-1.8700060844421387,"61":1.7269237041473389,"62":1.8146259784698486,"63":-1.7217860221862793,"64":-1.8191403150558472,"65":-1.7236199378967285,"66":1.8198703527450562,"67":1.7253339290618896,"68":-1.7801392078399658,"69":-1.8469492197036743,"70":-1.7326719760894775,"71":1.7464560270309448,"72":-1.7346835136413574,"73":1.7745414972305298,"74":1.8283039331436157,"75":1.7047144174575806,"76":-1.8382725715637207,"77":-0.8167281150817871,"78":-1.6712651252746582,"79":-1.74080228805542,"80":4.251099586486816,"81":-4.63424015045166,"82":-5.860697269439697,"83":-0.7709592580795288,"84":6.311104774475098,"85":4.812057018280029,"86":-4.100802421569824,"87":-4.71311616897583,"88":4.780459880828857,"89":-0.7688217759132385,"90":-0.7583818435668945,"91":-6.230655193328857,"92":0.19234135746955872,"93":0.7734944820404053,"94":-2.003634452819824,"95":0.570369303226471,"96":-0.6930359601974487,"97":-0.0346376970410347,"98":-0.8145272135734558,"99":-0.785971999168396,"100":-3.0439562797546387,"101":2.869174003601074,"102":2.9749674797058105,"103":-2.5170671939849854,"104":-3.074629306793213,"105":-2.873094320297241,"106":2.944805383682251,"107":2.6237664222717285,"108":-2.609682321548462,"109":-2.5884721279144287,"110":-3.026146650314331,"111":3.016291618347168,"112":-2.5240213871002197,"113":2.5035581588745117,"114":2.5658762454986572,"115":2.490116596221924,"116":-2.610273599624634,"117":-2.2083675861358643,"118":-2.491115093231201,"119":-2.507063865661621,"120":5.975574970245361,"121":-2.244786024093628,"122":-5.22395133972168,"123":2.3321950435638428,"124":5.891525745391846,"125":2.297820568084717,"126":-6.712347984313965,"127":-2.24098801612854,"128":2.3065311908721924,"129":2.32698917388916,"130":2.2768218517303467,"131":-7.739907741546631,"132":-0.7371712327003479,"133":-2.308476209640503,"134":-1.5551308393478394,"135":-2.194758653640747,"136":2.4277195930480957,"137":1.3074612617492676,"138":2.503674268722534,"139":2.2495322227478027,"140":-2.8798723220825195,"141":2.757021427154541,"142":2.892904043197632,"143":-2.842888116836548,"144":-2.874544620513916,"145":-2.9097471237182617,"146":2.8697426319122314,"147":2.8791823387145996,"148":-2.9174482822418213,"149":-2.8645951747894287,"150":-2.8778164386749268,"151":2.874838352203369,"152":-2.815385341644287,"153":2.8331122398376465,"154":2.874932289123535,"155":2.8392834663391113,"156":-2.856163501739502,"157":-2.168045997619629,"158":-2.7926135063171387,"159":-2.7478864192962646,"160":-2.3054027557373047,"161":2.28533673286438,"162":2.2994444370269775,"163":-2.2822799682617188,"164":-2.355760097503662,"165":-2.2613120079040527,"166":2.334902048110962,"167":2.2551941871643066,"168":-2.361255168914795,"169":-2.3920655250549316,"170":-2.250366449356079,"171":2.28767728805542,"172":-2.2876691818237305,"173":2.231159210205078,"174":2.353036642074585,"175":2.2559521198272705,"176":-2.436697483062744,"177":-1.2859967947006226,"178":-2.284693479537964,"179":-2.3300163745880127,"180":-1.9983817338943481,"181":2.0401430130004883,"182":2.0115551948547363,"183":-1.9863831996917725,"184":-2.054527759552002,"185":-2.1048150062561035,"186":2.0596985816955566,"187":2.0433342456817627,"188":-2.041430950164795,"189":-2.067213773727417,"190":-1.9648017883300781,"191":2.008552312850952,"192":-1.9893500804901123,"193":2.003234386444092,"194":1.9937769174575806,"195":2.0102148056030273,"196":-2.1348063945770264,"197":-0.9951128959655762,"198":-1.8639717102050781,"199":-2.0758988857269287,"200":2.693636178970337,"201":0.3185974359512329,"202":3.429771661758423,"203":-2.5170981884002686,"204":-3.3983750343322754,"205":-0.3447648882865906,"206":-2.6518661975860596,"207":0.4038371741771698,"208":-2.4453091621398926,"209":-1.5491509437561035,"210":-3.95009446144104,"211":-2.6858763694763184,"212":-0.35819658637046814,"213":2.5543575286865234,"214":3.540315866470337,"215":-1.9105767011642456,"216":-0.44118523597717285,"217":-3.591783046722412,"218":4.986298084259033,"219":-2.210860252380371,"220":8.093213081359863,"221":-1.4893087148666382,"222":-7.401480197906494,"223":1.7003098726272583,"224":7.867925643920898,"225":1.6896989345550537,"226":-3.4344921112060547,"227":-1.6996104717254639,"228":1.7011760473251343,"229":1.6510218381881714,"230":1.35956871509552,"231":-10.101726531982422,"232":-1.354923129081726,"233":-1.6982189416885376,"234":0.42574673891067505,"235":-1.6136605739593506,"236":1.709652304649353,"237":3.314134359359741,"238":2.42622709274292,"239":1.590851068496704,"240":4.6156182289123535,"241":-0.97417813539505,"242":-4.203439235687256,"243":1.309557557106018,"244":4.31708288192749,"245":0.9905006289482117,"246":-4.00760555267334,"247":-1.1242811679840088,"248":1.0948134660720825,"249":1.220011830329895,"250":0.9981517195701599,"251":2.0159735679626465,"252":3.7609641551971436,"253":-1.1865507364273071,"254":-1.6207016706466675,"255":-0.840979814529419,"256":1.0719255208969116,"257":-3.0220911502838135,"258":3.723696231842041,"259":2.8561618328094482,"260":-2.1150991916656494,"261":2.0886428356170654,"262":2.205052614212036,"263":-2.1496429443359375,"264":-2.22664475440979,"265":-2.1175193786621094,"266":2.0916643142700195,"267":2.1074821949005127,"268":-2.2337679862976074,"269":-2.112708806991577,"270":-2.1445772647857666,"271":1.9871433973312378,"272":-2.071441411972046,"273":2.1714212894439697,"274":2.198484420776367,"275":1.996588945388794,"276":-2.2996723651885986,"277":-1.1198583841323853,"278":-2.035282850265503,"279":-2.0665767192840576,"280":-3.2859854698181152,"281":2.6654937267303467,"282":1.6297272443771362,"283":3.148024320602417,"284":-3.2148663997650146,"285":-2.6533634662628174,"286":3.281137228012085,"287":-3.126390218734741,"288":-2.439852714538574,"289":3.0251150131225586,"290":3.137277841567993,"291":3.323164224624634,"292":-2.7131171226501465,"293":-0.106450654566288,"294":4.1563825607299805,"295":-3.0716774463653564,"296":3.0922627449035645,"297":-1.642968773841858,"298":-2.915426731109619,"299":3.31968355178833,"300":0.42174530029296875,"301":-1.5752577781677246,"302":1.775822639465332,"303":-1.9834948778152466,"304":0.5747494697570801,"305":1.6207361221313477,"306":-1.6653021574020386,"307":-1.5790518522262573,"308":1.5429633855819702,"309":-1.9034367799758911,"310":-1.8546427488327026,"311":-0.46244069933891296,"312":-0.12746530771255493,"313":0.3358783423900604,"314":1.5412178039550781,"315":1.9484906196594238,"316":-1.935990810394287,"317":-1.7433397769927979,"318":-0.16754509508609772,"319":-0.5963165163993835,"320":-2.7242376804351807,"321":2.6082406044006348,"322":2.7491886615753174,"323":-2.7225139141082764,"324":-2.689345359802246,"325":-2.703848123550415,"326":2.644249439239502,"327":2.686295747756958,"328":-2.6935906410217285,"329":-2.726754903793335,"330":-2.5965569019317627,"331":2.641878366470337,"332":-2.6968960762023926,"333":2.5918033123016357,"334":2.7081830501556396,"335":2.594010353088379,"336":-2.696305513381958,"337":-1.7566468715667725,"338":-2.5594353675842285,"339":-2.5962979793548584,"340":-5.287843227386475,"341":-0.40732285380363464,"342":5.063846588134766,"343":2.170045852661133,"344":-2.8419859409332275,"345":-3.7251579761505127,"346":1.7471849918365479,"347":-1.769221544265747,"348":6.52555513381958,"349":1.5622791051864624,"350":-6.05382776260376,"351":3.5482239723205566,"352":-0.8408973813056946,"353":-4.35343074798584,"354":1.2696571350097656,"355":3.605609178543091,"356":-0.8724693655967712,"357":4.924506187438965,"358":-2.0378856658935547,"359":4.115942001342773,"360":0.3288082182407379,"361":-0.32740992307662964,"362":-0.24216483533382416,"363":0.29094943404197693,"364":0.3672889769077301,"365":0.1920681744813919,"366":-0.3731769621372223,"367":-0.34953805804252625,"368":0.37951919436454773,"369":0.20570756494998932,"370":0.21926969289779663,"371":-0.3200100362300873,"372":-2.85054874420166,"373":-0.25729554891586304,"374":2.8094842433929443,"375":-0.32694950699806213,"376":0.28814783692359924,"377":-6.089077472686768,"378":0.35363897681236267,"379":0.2319333553314209,"380":-0.9507858753204346,"381":0.7597697973251343,"382":0.9561144709587097,"383":-0.8423710465431213,"384":-0.9370488524436951,"385":-0.9281449913978577,"386":0.8054184913635254,"387":0.898392379283905,"388":-0.9025477170944214,"389":-0.8890585899353027,"390":-0.8966122269630432,"391":0.8133069276809692,"392":-0.884793221950531,"393":0.901557981967926,"394":0.8134141564369202,"395":0.830081045627594,"396":-0.9020406603813171,"397":-0.3982953131198883,"398":-0.7158962488174438,"399":-0.8519388437271118}},"forgetBias":{"rows":20,"columns":1,"weights":{"0":0,"1":0,"2":0,"3":0,"4":0,"5":0,"6":0,"7":0,"8":0,"9":0,"10":0,"11":0,"12":0,"13":0,"14":0,"15":0,"16":0,"17":0,"18":0,"19":0}},"outputMatrix":{"rows":20,"columns":20,"weights":{"0":6.416130542755127,"1":-3.1356334686279297,"2":0.3747449219226837,"3":-0.8309381604194641,"4":3.66444730758667,"5":1.3004461526870728,"6":6.685799598693848,"7":-5.461637496948242,"8":-0.24644975364208221,"9":-1.4232062101364136,"10":-4.857216835021973,"11":-9.856666564941406,"12":1.2609175443649292,"13":-0.6412652134895325,"14":-1.3633408546447754,"15":-1.1001996994018555,"16":2.5676589012145996,"17":-4.971905708312988,"18":5.110269069671631,"19":-4.962709903717041,"20":4.554417610168457,"21":-7.170230388641357,"22":-3.2418441772460938,"23":-5.167516231536865,"24":7.090460300445557,"25":5.894162654876709,"26":2.2740399837493896,"27":-5.613017559051514,"28":0.8491246104240417,"29":-0.6762837767601013,"30":4.3496832847595215,"31":-1.4230984449386597,"32":5.576673984527588,"33":-2.114367961883545,"34":-0.6558772325515747,"35":5.49443244934082,"36":2.1295111179351807,"37":-4.049534320831299,"38":2.2715063095092773,"39":-8.832703590393066,"40":5.242636203765869,"41":0.17772266268730164,"42":-2.727327823638916,"43":1.4001407623291016,"44":2.612316370010376,"45":-0.7014949917793274,"46":3.3527915477752686,"47":-0.008678363636136055,"48":1.1606683731079102,"49":0.27577856183052063,"50":-10.112628936767578,"51":-13.58129596710205,"52":-6.768898963928223,"53":-2.0265564918518066,"54":0.1447753757238388,"55":-7.841366767883301,"56":2.6195409297943115,"57":2.5571868419647217,"58":9.8544340133667,"59":2.3473901748657227,"60":6.880338191986084,"61":-6.256474018096924,"62":-1.6713987588882446,"63":-10.955755233764648,"64":6.021260738372803,"65":11.493426322937012,"66":1.7529677152633667,"67":-5.828840732574463,"68":5.434444427490234,"69":-5.391985893249512,"70":-1.079905390739441,"71":-2.6144495010375977,"72":5.899936676025391,"73":-7.300467491149902,"74":-5.13085412979126,"75":3.4632742404937744,"76":1.3037147521972656,"77":-5.699139595031738,"78":1.5635308027267456,"79":-7.204204559326172,"80":9.884230613708496,"81":-1.346699595451355,"82":-2.162710666656494,"83":0.28472384810447693,"84":4.565330982208252,"85":-5.129000186920166,"86":4.02311897277832,"87":-3.857598304748535,"88":2.641444683074951,"89":-2.41609787940979,"90":-10.095088005065918,"91":-14.112051963806152,"92":1.1969443559646606,"93":-3.4902431964874268,"94":-2.389145851135254,"95":-6.721976280212402,"96":-2.1328420639038086,"97":2.5510966777801514,"98":10.677942276000977,"99":-0.8521319627761841,"100":4.6426897048950195,"101":-7.568349838256836,"102":-3.145598888397217,"103":-5.537627696990967,"104":7.621074676513672,"105":6.221805095672607,"106":2.6537411212921143,"107":-5.787294387817383,"108":0.413605660200119,"109":-0.8317173719406128,"110":4.190615653991699,"111":-1.9232395887374878,"112":5.785131454467773,"113":-2.042827844619751,"114":-1.0874650478363037,"115":5.236849308013916,"116":2.234070062637329,"117":-4.480438709259033,"118":2.609103202819824,"119":-8.912562370300293,"120":7.337716579437256,"121":-5.61446475982666,"122":-0.06648820638656616,"123":-3.9423601627349854,"124":1.076589584350586,"125":4.5363264083862305,"126":-0.016082312911748886,"127":-5.230320453643799,"128":-1.48611581325531,"129":-3.943507432937622,"130":-4.878901958465576,"131":-8.41779613494873,"132":1.3355580568313599,"133":0.42476582527160645,"134":-3.96379017829895,"135":-1.8179625272750854,"136":0.1977733075618744,"137":-3.8406381607055664,"138":5.875010967254639,"139":-3.856062412261963,"140":4.789664268493652,"141":-7.598330974578857,"142":-4.877133369445801,"143":-5.648335933685303,"144":5.667815208435059,"145":6.654013156890869,"146":-0.4485338032245636,"147":-5.321115493774414,"148":1.532166600227356,"149":-1.8596689701080322,"150":3.4338760375976562,"151":1.1319502592086792,"152":5.278473854064941,"153":-2.597419500350952,"154":-2.2306015491485596,"155":4.7838664054870605,"156":4.9329423904418945,"157":-3.8542416095733643,"158":-0.3600001633167267,"159":-8.076492309570312,"160":5.407589435577393,"161":-5.530142784118652,"162":-0.6856980323791504,"163":-9.049884796142578,"164":5.229816913604736,"165":10.140791893005371,"166":0.3983156681060791,"167":-5.80811071395874,"168":4.8709716796875,"169":-3.819023609161377,"170":0.997118353843689,"171":-2.323411226272583,"172":5.702765941619873,"173":-6.461147308349609,"174":-3.905801773071289,"175":3.062305212020874,"176":0.4992173910140991,"177":-2.3894875049591064,"178":0.2983991205692291,"179":-6.63997745513916,"180":6.159709453582764,"181":-6.948246002197266,"182":-1.476906180381775,"183":-10.53914737701416,"184":6.223018646240234,"185":11.070422172546387,"186":1.5643566846847534,"187":-5.867210865020752,"188":5.943793773651123,"189":-5.750432968139648,"190":-1.233634352684021,"191":-2.4378485679626465,"192":5.854099273681641,"193":-7.591291427612305,"194":-5.704782962799072,"195":2.7039613723754883,"196":1.170493721961975,"197":-3.626650094985962,"198":1.5130300521850586,"199":-6.301438331604004,"200":1.242114782333374,"201":-8.640907287597656,"202":-1.0433050394058228,"203":-5.778119087219238,"204":1.7828260660171509,"205":4.920638561248779,"206":5.1362433433532715,"207":-7.328476428985596,"208":1.6201366186141968,"209":-4.854608535766602,"210":-3.861537218093872,"211":7.640544414520264,"212":10.601988792419434,"213":-1.3633044958114624,"214":-5.120650768280029,"215":13.552286148071289,"216":2.7402517795562744,"217":-10.495598793029785,"218":4.708498477935791,"219":-6.143771648406982,"220":5.598532676696777,"221":1.6389873027801514,"222":3.8139808177948,"223":1.4689007997512817,"224":-2.7742695808410645,"225":-1.6541491746902466,"226":8.867684364318848,"227":-3.0658740997314453,"228":-5.49867582321167,"229":1.95100736618042,"230":-2.04343318939209,"231":-9.034012794494629,"232":-0.011153951287269592,"233":4.934375286102295,"234":1.9551079273223877,"235":-5.122406005859375,"236":-3.807485818862915,"237":-0.02634536847472191,"238":1.2777916193008423,"239":-2.3140628337860107,"240":0.4508759379386902,"241":-3.8147170543670654,"242":0.04677833616733551,"243":-1.9709923267364502,"244":-1.6642171144485474,"245":3.1684510707855225,"246":-0.06938409060239792,"247":-0.10968079417943954,"248":-2.1581132411956787,